<?xml version="1.0"?>
<opencv_storage>
<opencv_ml_svm>
  <format>3</format>
  <svmType>C_SVC</svmType>
  <kernel>
    <type>RBF</type>
    <gamma>5.0625000000000009e-001</gamma></kernel>
  <C>6.2500000000000000e+001</C>
  <term_criteria><iterations>40000</iterations></term_criteria>
  <var_count>512</var_count>
  <class_count>3</class_count>
  <class_labels type_id="opencv-matrix">
    <rows>3</rows>
    <cols>1</cols>
    <dt>i</dt>
    <data>
      0 1 2</data></class_labels>
  <sv_total>38</sv_total>
  <support_vectors>
    <_>
      1.14942528e-002 1.14942528e-002 2.90993747e-004 3.63742188e-003
      4.07391228e-003 5.81987493e-004 2.03695614e-003 5.23788761e-003
      5.81987493e-004 5.81987493e-004 1.45496873e-004 0. 3.05543444e-003
      7.27484352e-004 3.78291868e-003 8.87530949e-003 8.87530949e-003
      3.63742188e-003 5.81987493e-004 1.45496870e-003 2.90993747e-004 0.
      1.74596254e-003 1.01847807e-003 3.63742188e-003 8.72981269e-004
      1.45496873e-004 0. 2.05150601e-002 4.36490634e-004 3.72471996e-002
      2.99723558e-002 7.71133415e-003 1.06212720e-002 8.72981269e-004
      6.98385015e-003 3.63742188e-003 8.72981269e-004 2.18245317e-003
      8.72981269e-003 1.16397499e-003 8.72981269e-004 1.45496873e-004 0.
      3.20093124e-003 5.81987493e-004 7.85683095e-003 2.05150601e-002
      1.13487560e-002 3.49192508e-003 8.72981269e-004 5.81987493e-004
      5.81987493e-004 0. 2.03695614e-003 1.60046562e-003 4.36490634e-003
      7.27484352e-004 0. 1.45496873e-004 2.10970473e-002 7.27484352e-004
      8.48246738e-002 3.59377265e-002 1.04757752e-002 1.42586939e-002
      7.27484352e-004 4.65589995e-003 8.72981269e-004 1.45496873e-004
      2.18245317e-003 1.07667688e-002 8.72981269e-004 5.81987493e-004
      2.90993747e-004 0. 2.32794997e-003 1.16397499e-003 1.01847807e-002
      4.91779447e-002 1.03302784e-002 4.51040315e-003 7.27484352e-004
      1.30947190e-003 5.81987493e-004 0. 8.72981269e-004 1.45496870e-003
      4.80139675e-003 1.60046562e-003 1.45496873e-004 2.90993747e-004
      1.44041907e-002 1.01847807e-003 5.16513884e-002 3.27367969e-002
      1.32402154e-002 9.74829029e-003 8.72981269e-004 4.94689355e-003
      3.20093124e-003 2.90993747e-004 3.20093124e-003 3.01178526e-002
      8.72981269e-004 8.72981269e-004 0. 0. 4.21940954e-003
      8.72981269e-004 1.10577624e-002 8.27877223e-002 1.03302784e-002
      3.34642804e-003 1.45496873e-004 2.90993747e-004 4.36490634e-004 0.
      8.72981269e-004 5.81987493e-004 6.25636568e-003 8.72981269e-004
      2.90993747e-004 4.36490634e-004 8.29332136e-003 1.45496870e-003
      3.69562060e-002 3.73926982e-002 3.20093124e-003 2.03695614e-003 0.
      1.74596254e-003 1.60046562e-003 0. 1.16397499e-003 5.81987482e-003
      2.90993747e-004 1.45496873e-004 0. 0. 2.90993741e-003 0.
      4.80139675e-003 1.92055870e-002 4.51040315e-003 1.74596254e-003
      1.45496873e-004 2.90993747e-004 2.90993747e-004 0. 2.90993747e-004
      7.27484352e-004 3.49192508e-003 8.72981269e-004 1.45496873e-004 0.
      2.42979787e-002 8.72981269e-004 4.10301201e-002 1.94965806e-002
      7.56583735e-003 5.09239035e-003 1.01847807e-003 2.18245317e-003
      3.92841548e-003 2.90993747e-004 2.61894381e-003 1.38222026e-002
      1.45496870e-003 1.45496873e-004 0. 1.45496873e-004 1.30947190e-003
      2.90993747e-004 9.45729669e-003 5.60162961e-002 4.80139675e-003
      3.05543444e-003 1.45496873e-004 1.16397499e-003 2.90993747e-004 0.
      7.27484352e-004 4.36490634e-004 3.92841548e-003 1.01847807e-003
      4.36490634e-004 4.36490634e-004 1.94965806e-002 2.32794997e-003
      3.50647457e-002 5.52888103e-002 2.61894381e-003 4.07391228e-003
      2.90993747e-004 2.32794997e-003 1.01847807e-003 5.81987493e-004
      1.45496870e-003 2.16790345e-002 4.36490634e-004 5.81987493e-004 0.
      1.45496873e-004 1.30947190e-003 1.16397499e-003 3.20093124e-003
      6.32911399e-002 3.92841548e-003 1.60046562e-003 0. 1.45496873e-004
      0. 1.45496873e-004 1.45496873e-004 8.72981269e-004 1.16397499e-003
      2.90993747e-004 1.45496873e-004 1.45496873e-004 3.49192508e-003
      2.90993747e-004 9.02080629e-003 3.75381932e-002 3.63742188e-003
      1.89145934e-003 0. 4.36490634e-004 2.32794997e-003 1.45496873e-004
      8.72981269e-004 4.36490634e-003 7.27484352e-004 1.45496873e-004
      1.45496873e-004 0. 1.74596254e-003 7.27484352e-004 3.20093124e-003
      1.19307432e-002 3.92841548e-003 1.89145934e-003 1.45496873e-004
      5.81987493e-004 7.27484352e-004 0. 4.36490634e-004 2.90993747e-004
      2.90993741e-003 7.27484352e-004 0. 1.45496873e-004 1.23672346e-002
      4.36490634e-004 1.87690966e-002 2.92448718e-002 3.20093124e-003
      1.01847807e-003 0. 1.74596254e-003 7.27484352e-004 2.90993747e-004
      1.30947190e-003 7.12934695e-003 1.45496873e-004 2.90993747e-004 0.
      0. 1.74596254e-003 0. 3.92841548e-003 1.17852464e-002
      1.45496870e-003 1.45496873e-004 0. 1.45496873e-004 1.45496873e-004
      0. 2.90993747e-004 4.36490634e-004 1.60046562e-003 4.36490634e-004
      0. 0. 8.00232776e-003 2.90993747e-004 1.07667688e-002
      1.76051222e-002 4.36490634e-003 4.07391228e-003 7.27484352e-004
      3.78291868e-003 2.03695614e-003 2.90993747e-004 1.89145934e-003
      2.15335377e-002 5.81987493e-004 4.36490634e-004 0. 1.45496873e-004
      1.16397499e-003 0. 4.07391228e-003 4.00116406e-002 4.07391228e-003
      7.27484352e-004 1.45496873e-004 1.01847807e-003 1.45496873e-004
      1.45496873e-004 1.45496873e-004 8.72981269e-004 2.18245317e-003
      5.81987493e-004 0. 2.90993747e-004 5.81987482e-003 4.36490634e-004
      1.45496875e-002 2.51709595e-002 5.09239035e-003 7.85683095e-003
      5.81987493e-004 2.61894381e-003 1.30947190e-003 5.81987493e-004
      2.18245317e-003 1.13487560e-002 2.90993747e-004 2.90993747e-004 0.
      4.36490634e-004 1.89145934e-003 2.90993747e-004 7.85683095e-003
      3.69562060e-002 6.11086888e-003 3.49192508e-003 7.27484352e-004
      1.16397499e-003 4.36490634e-004 1.45496873e-004 8.72981269e-004
      1.60046562e-003 1.74596254e-003 4.36490634e-004 1.45496873e-004
      4.36490634e-004 9.31179989e-003 7.27484352e-004 4.78684716e-002
      3.20093110e-002 6.54735928e-003 3.49192508e-003 8.72981269e-004
      4.65589995e-003 2.03695614e-003 5.81987493e-004 2.90993741e-003
      1.20762400e-002 1.01847807e-003 0. 0. 2.90993747e-004
      2.03695614e-003 5.81987493e-004 9.60279349e-003 3.14273238e-002
      3.05543444e-003 1.45496870e-003 4.36490634e-004 8.72981269e-004
      4.36490634e-004 1.45496873e-004 1.01847807e-003 1.16397499e-003
      4.21940954e-003 1.01847807e-003 0. 2.90993747e-004 2.63349339e-002
      1.16397499e-003 7.07114786e-002 6.91110119e-002 4.65589995e-003
      1.14942528e-002 2.90993747e-004 5.52888121e-003 7.27484352e-004
      4.36490634e-004 2.61894381e-003 1.23672346e-002 2.90993747e-004
      8.72981269e-004 0. 7.27484352e-004 2.18245317e-003 8.72981269e-004
      9.74829029e-003 5.12148999e-002 7.85683095e-003 6.11086888e-003
      5.81987493e-004 2.18245317e-003 1.45496873e-004 0. 1.60046562e-003
      2.76444061e-003 2.90993741e-003 1.74596254e-003 1.45496873e-004
      2.90993747e-004 1.20762400e-002 1.45496870e-003 6.38731271e-002
      1.32838652e-001 8.87530949e-003 6.40186248e-003 1.45496870e-003
      3.78291868e-003 3.78291868e-003 2.90993747e-004 2.76444061e-003
      9.31179989e-003 4.36490634e-004 2.90993747e-004 4.36490634e-004
      1.45496873e-004 3.05543444e-003 5.81987493e-004 1.06212720e-002
      3.66652124e-002 5.23788761e-003 4.36490634e-003 8.72981269e-004
      8.72981269e-004 2.90993747e-004 0. 7.27484352e-004 2.03695614e-003
      4.21940954e-003 7.27484352e-004 1.16397499e-003 2.90993747e-004
      1.19307432e-002 1.89145934e-003 4.67044972e-002 6.41641244e-002
      1.01847807e-002 1.32402154e-002 4.36490634e-004 2.90993741e-003
      2.32794997e-003 5.81987493e-004 1.30947190e-003 8.43881909e-003
      7.27484352e-004 5.81987493e-004 1.45496873e-004 2.90993747e-004
      3.92841548e-003 7.27484352e-004 1.28037250e-002 2.13880409e-002
      1.76051222e-002 5.96537162e-003 1.16397499e-003 1.89145934e-003
      4.36490634e-004 1.45496873e-004 5.81987493e-004 7.27484352e-004
      4.21940954e-003 1.16397499e-003 2.90993747e-004 2.90993747e-004
      1.97875742e-002 1.16397499e-003 8.20602402e-002 3.50647457e-002
      1.57136619e-002 1.23672346e-002 1.16397499e-003 2.90993741e-003
      2.03695614e-003 4.36490634e-004 3.20093124e-003 3.49192508e-003
      1.74596254e-003 5.81987493e-004 2.90993747e-004 4.36490634e-004
      3.34642804e-003 7.27484352e-004 1.38222026e-002 1.57136619e-002
      1.80416126e-002 8.58431589e-003 1.45496870e-003 1.30947190e-003
      1.60046562e-003 1.45496873e-004 1.45496870e-003 1.45496870e-003
      6.54735928e-003 1.45496870e-003 2.90993747e-004 1.16397499e-003
      1.73141286e-002 2.18245317e-003 1.17706969e-001 5.28153665e-002</_>
    <_>
      8.87530949e-003 7.42034055e-003 5.81987493e-004 2.61894381e-003
      3.63742188e-003 5.81987493e-004 3.05543444e-003 3.92841548e-003
      2.03695614e-003 7.27484352e-004 2.90993747e-004 1.45496873e-004
      4.51040315e-003 2.90993747e-004 1.55681651e-002 1.58591587e-002
      8.87530949e-003 4.65589995e-003 4.36490634e-004 1.01847807e-003
      4.36490634e-004 1.45496873e-004 2.90993747e-004 1.74596254e-003
      7.27484375e-003 1.60046562e-003 2.90993747e-004 1.45496870e-003
      3.68107073e-002 2.61894381e-003 6.05266988e-002 5.28153665e-002
      9.16630309e-003 9.16630309e-003 7.27484352e-004 4.21940954e-003
      3.63742188e-003 2.90993747e-004 2.47344677e-003 6.69285608e-003
      1.01847807e-003 2.90993747e-004 2.90993747e-004 2.90993747e-004
      3.92841548e-003 7.27484352e-004 1.30947186e-002 4.58315164e-002
      8.58431589e-003 3.34642804e-003 4.36490634e-004 7.27484352e-004
      4.36490634e-004 0. 1.30947190e-003 8.72981269e-004 5.96537162e-003
      2.90993747e-004 2.90993747e-004 4.36490634e-004 2.06605569e-002
      1.60046562e-003 8.38062018e-002 5.65982834e-002 1.23672346e-002
      1.01847807e-002 1.30947190e-003 4.51040315e-003 2.47344677e-003
      1.30947190e-003 4.36490634e-003 2.41524801e-002 1.45496870e-003
      8.72981269e-004 2.90993747e-004 2.90993747e-004 3.05543444e-003
      8.72981269e-004 1.38222026e-002 8.91895816e-002 8.87530949e-003
      3.20093124e-003 5.81987493e-004 1.45496870e-003 2.90993747e-004
      1.45496873e-004 1.30947190e-003 1.30947190e-003 4.51040315e-003
      1.16397499e-003 5.81987493e-004 8.72981269e-004 9.60279349e-003
      1.60046562e-003 3.88476662e-002 7.33304247e-002 1.46951843e-002
      5.96537162e-003 1.74596254e-003 4.94689355e-003 5.52888121e-003
      1.16397499e-003 4.21940954e-003 2.03695614e-002 2.76444061e-003
      1.01847807e-003 4.36490634e-004 4.36490634e-004 5.23788761e-003
      8.72981269e-004 9.89378709e-003 5.41248359e-002 8.00232776e-003
      4.07391228e-003 5.81987493e-004 1.01847807e-003 5.81987493e-004
      2.90993747e-004 1.45496873e-004 2.47344677e-003 7.12934695e-003
      1.16397499e-003 5.81987493e-004 1.01847807e-003 1.74596254e-002
      1.45496870e-003 5.13603948e-002 8.48246738e-002 1.07667688e-002
      8.72981269e-004 1.01847807e-003 4.51040315e-003 8.58431589e-003
      1.45496873e-004 4.80139675e-003 1.46951843e-002 1.16397499e-003
      4.36490634e-004 4.36490634e-004 0. 7.27484375e-003 7.27484352e-004
      8.87530949e-003 2.08060537e-002 4.21940954e-003 4.36490634e-004
      2.90993747e-004 2.90993747e-004 7.27484352e-004 0. 5.81987493e-004
      8.72981269e-004 6.98385015e-003 1.60046562e-003 2.90993747e-004
      4.36490634e-004 2.73534115e-002 1.74596254e-003 4.00116406e-002
      2.96813622e-002 4.65589995e-003 5.09239035e-003 1.30947190e-003
      4.80139675e-003 3.20093124e-003 1.45496873e-004 2.47344677e-003
      2.44434755e-002 1.45496873e-004 1.45496873e-004 1.45496873e-004 0.
      2.32794997e-003 4.36490634e-004 6.98385015e-003 5.19423820e-002
      3.49192508e-003 2.61894381e-003 1.45496873e-004 1.16397499e-003
      4.36490634e-004 1.45496873e-004 2.90993747e-004 1.30947190e-003
      1.45496870e-003 5.81987493e-004 2.90993747e-004 4.36490634e-004
      7.85683095e-003 5.81987493e-004 2.05150601e-002 7.31849298e-002
      6.40186248e-003 3.20093124e-003 2.90993747e-004 2.18245317e-003
      4.21940954e-003 0. 1.16397499e-003 9.74829029e-003 5.81987493e-004
      1.45496873e-004 2.90993747e-004 1.45496873e-004 3.49192508e-003
      2.90993747e-004 2.32794997e-003 1.41131971e-002 3.20093124e-003
      2.76444061e-003 4.36490634e-004 1.01847807e-003 4.36490634e-004 0.
      2.90993747e-004 1.30947190e-003 3.92841548e-003 5.81987493e-004
      1.45496873e-004 0. 9.74829029e-003 5.81987493e-004 6.11086888e-003
      1.94965806e-002 6.98385015e-003 2.61894381e-003 2.90993747e-004
      3.20093124e-003 5.81987482e-003 1.45496873e-004 2.32794997e-003
      1.64411459e-002 1.01847807e-003 2.90993747e-004 0. 2.90993747e-004
      2.03695614e-003 2.90993747e-004 2.61894381e-003 2.45889723e-002
      2.32794997e-003 5.81987493e-004 2.90993747e-004 4.36490634e-004
      2.90993747e-004 1.45496873e-004 4.36490634e-004 1.01847807e-003
      1.74596254e-003 1.45496873e-004 1.45496873e-004 2.90993747e-004
      9.60279349e-003 2.90993747e-004 1.32402154e-002 2.99723558e-002
      1.12032592e-002 3.92841548e-003 8.72981269e-004 2.03695614e-003
      3.49192508e-003 4.36490634e-004 2.76444061e-003 1.70231350e-002
      1.89145934e-003 8.72981269e-004 0. 7.27484352e-004 3.20093124e-003
      5.81987493e-004 5.38338441e-003 2.51709595e-002 5.09239035e-003
      1.30947190e-003 1.45496873e-004 1.01847807e-003 2.90993747e-004 0.
      2.90993747e-004 8.72981269e-004 4.21940954e-003 1.01847807e-003
      2.90993747e-004 4.36490634e-004 1.10577624e-002 1.30947190e-003
      1.89145934e-002 2.00785678e-002 1.16397496e-002 5.09239035e-003
      2.18245317e-003 4.21940954e-003 3.20093124e-003 8.72981269e-004
      3.20093124e-003 1.62956491e-002 1.01847807e-003 7.27484352e-004
      1.45496873e-004 7.27484352e-004 2.61894381e-003 2.90993747e-004
      6.40186248e-003 4.23395894e-002 8.72981269e-003 4.07391228e-003
      4.36490634e-004 8.72981269e-004 1.16397499e-003 2.90993747e-004
      4.36490634e-004 1.01847807e-003 3.49192508e-003 1.30947190e-003
      8.72981269e-004 4.36490634e-004 8.00232776e-003 1.30947190e-003
      2.09515505e-002 3.23003046e-002 1.17852464e-002 5.96537162e-003
      1.74596254e-003 3.34642804e-003 4.94689355e-003 7.27484352e-004
      3.20093124e-003 5.81987482e-003 3.34642804e-003 5.81987493e-004
      7.27484352e-004 4.36490634e-004 6.83835289e-003 8.72981269e-004
      9.31179989e-003 1.54226683e-002 7.71133415e-003 3.63742188e-003
      8.72981269e-004 7.27484352e-004 5.81987493e-004 1.45496873e-004
      1.45496870e-003 1.74596254e-003 7.12934695e-003 1.01847807e-003
      4.36490634e-004 7.27484352e-004 2.26975121e-002 1.74596254e-003
      5.71802706e-002 4.59770113e-002 8.58431589e-003 5.09239035e-003
      4.36490634e-004 2.90993741e-003 4.36490634e-003 4.36490634e-004
      1.30947190e-003 6.54735928e-003 8.72981269e-004 1.45496873e-004 0.
      4.36490634e-004 2.61894381e-003 2.90993747e-004 2.76444061e-003
      1.06212720e-002 4.94689355e-003 6.83835289e-003 4.36490634e-004
      7.27484352e-004 5.81987493e-004 1.45496873e-004 0. 1.01847807e-003
      2.61894381e-003 4.36490634e-004 2.90993747e-004 1.45496873e-004
      6.54735928e-003 1.01847807e-003 1.30947186e-002 2.83718910e-002
      1.07667688e-002 1.78961158e-002 1.16397499e-003 3.78291868e-003
      2.18245317e-003 5.81987493e-004 2.90993741e-003 1.22217378e-002
      1.30947190e-003 1.16397499e-003 0. 4.36490634e-004 1.89145934e-003
      1.01847807e-003 1.68776382e-002 8.46791789e-002 1.01847807e-002
      1.17852464e-002 1.16397499e-003 1.89145934e-003 8.72981269e-004
      4.36490634e-004 4.36490634e-004 3.05543444e-003 3.63742188e-003
      1.01847807e-003 5.81987493e-004 7.27484352e-004 8.72981269e-003
      2.47344677e-003 6.88200220e-002 1.04757749e-001 1.38222026e-002
      1.19307432e-002 1.30947190e-003 5.38338441e-003 2.03695614e-003
      4.36490634e-004 3.78291868e-003 1.39677003e-002 1.60046562e-003
      1.45496870e-003 1.45496873e-004 1.45496870e-003 3.34642804e-003
      1.74596254e-003 1.61501523e-002 6.63465708e-002 1.19307432e-002
      8.29332136e-003 7.27484352e-004 1.45496870e-003 4.36490634e-004
      5.81987493e-004 1.74596254e-003 1.74596254e-003 5.67437802e-003
      1.16397499e-003 2.90993747e-004 5.81987493e-004 7.56583735e-003
      1.45496870e-003 6.15451783e-002 9.16630328e-002 9.45729669e-003
      9.31179989e-003 5.81987493e-004 1.16397499e-003 5.81987493e-004
      1.45496873e-004 5.81987493e-004 6.11086888e-003 1.60046562e-003
      1.16397499e-003 2.90993747e-004 4.36490634e-004 2.03695614e-003
      5.81987493e-004 1.30947186e-002 3.62287201e-002 1.77506190e-002
      9.74829029e-003 1.45496870e-003 5.81987493e-004 2.90993747e-004
      1.45496873e-004 1.16397499e-003 7.27484352e-004 6.40186248e-003
      1.16397499e-003 5.81987493e-004 1.45496873e-004 1.41131971e-002
      7.27484352e-004 9.87923741e-002 1.04175761e-001 1.16397496e-002
      1.36767058e-002 1.01847807e-003 1.16397499e-003 2.61894381e-003
      1.45496873e-004 2.03695614e-003 6.69285608e-003 3.05543444e-003
      1.16397499e-003 5.81987493e-004 2.90993747e-004 2.90993741e-003
      1.01847807e-003 1.32402154e-002 4.62680049e-002 2.28430089e-002
      1.33857122e-002 1.45496870e-003 1.45496870e-003 5.81987493e-004
      2.90993747e-004 5.81987493e-004 1.74596254e-003 6.98385015e-003
      2.90993741e-003 1.74596254e-003 4.36490634e-004 1.71686318e-002
      4.07391228e-003 8.48246738e-002 1.21489890e-001</_>
    <_>
      1.81871094e-002 1.36767058e-002 1.74596254e-003 4.51040315e-003
      3.34642804e-003 4.36490634e-004 2.90993741e-003 8.87530949e-003
      1.16397499e-003 8.72981269e-004 0. 5.81987493e-004 2.61894381e-003
      8.72981269e-004 9.60279349e-003 1.62956491e-002 1.42586939e-002
      6.83835289e-003 7.27484352e-004 1.45496870e-003 1.16397499e-003 0.
      1.60046562e-003 5.81987493e-004 5.09239035e-003 1.16397499e-003 0.
      4.36490634e-004 2.08060537e-002 1.01847807e-003 4.68499921e-002
      2.40069833e-002 1.57136619e-002 1.39677003e-002 2.76444061e-003
      7.27484375e-003 2.61894381e-003 5.81987493e-004 4.80139675e-003
      1.49861779e-002 2.47344677e-003 5.81987493e-004 1.45496873e-004
      2.90993747e-004 4.07391228e-003 1.74596254e-003 1.46951843e-002
      3.40462700e-002 1.38222026e-002 5.52888121e-003 2.18245317e-003
      1.74596254e-003 1.16397499e-003 0. 2.47344677e-003 1.16397499e-003
      6.83835289e-003 2.03695614e-003 5.81987493e-004 7.27484352e-004
      1.80416126e-002 8.72981269e-004 8.19147378e-002 3.12818289e-002
      1.45496875e-002 1.20762400e-002 1.60046562e-003 5.38338441e-003
      2.90993741e-003 8.72981269e-004 2.47344677e-003 1.48406811e-002
      2.76444061e-003 1.89145934e-003 0. 2.90993747e-004 3.49192508e-003
      3.20093124e-003 1.10577624e-002 7.97322839e-002 1.73141286e-002
      4.51040315e-003 5.81987493e-004 7.27484352e-004 4.36490634e-004
      1.45496873e-004 8.72981269e-004 8.72981269e-004 6.83835289e-003
      8.72981269e-004 1.45496873e-004 4.36490634e-004 1.13487560e-002
      1.74596254e-003 2.61894371e-002 2.88083814e-002 1.93510838e-002
      1.14942528e-002 1.45496870e-003 5.96537162e-003 3.34642804e-003
      1.74596254e-003 4.80139675e-003 2.47344691e-002 2.47344677e-003
      1.30947190e-003 4.36490634e-004 5.81987493e-004 5.52888121e-003
      2.76444061e-003 1.00392839e-002 4.93234396e-002 1.39677003e-002
      4.21940954e-003 5.81987493e-004 1.16397499e-003 4.36490634e-004 0.
      7.27484352e-004 1.16397499e-003 6.98385015e-003 1.30947190e-003
      5.81987493e-004 4.36490634e-004 1.17852464e-002 1.30947190e-003
      2.70624179e-002 3.56467329e-002 1.62956491e-002 6.25636568e-003
      1.89145934e-003 7.71133415e-003 8.29332136e-003 1.01847807e-003
      6.83835289e-003 1.64411459e-002 1.45496870e-003 0. 1.45496873e-004
      4.36490634e-004 4.80139675e-003 2.90993747e-004 1.13487560e-002
      2.26975121e-002 5.09239035e-003 2.90993741e-003 5.81987493e-004
      7.27484352e-004 8.72981269e-004 1.45496873e-004 1.16397499e-003
      1.16397499e-003 4.80139675e-003 8.72981269e-004 1.45496873e-004
      7.27484352e-004 2.12425441e-002 4.36490634e-004 3.68107073e-002
      2.31340025e-002 5.96537162e-003 5.23788761e-003 1.16397499e-003
      4.07391228e-003 3.63742188e-003 5.81987493e-004 2.90993741e-003
      1.12032592e-002 7.27484352e-004 1.45496873e-004 0. 1.45496873e-004
      1.89145934e-003 0. 5.52888121e-003 1.46951843e-002 4.21940954e-003
      2.47344677e-003 4.36490634e-004 5.81987493e-004 4.36490634e-004
      1.45496873e-004 1.30947190e-003 7.27484352e-004 3.92841548e-003 0.
      0. 4.36490634e-004 1.22217378e-002 1.74596254e-003 3.12818289e-002
      3.56467329e-002 4.51040315e-003 4.21940954e-003 2.90993747e-004
      2.03695614e-003 2.47344677e-003 4.36490634e-004 1.30947190e-003
      1.00392839e-002 0. 5.81987493e-004 1.45496873e-004 0.
      2.03695614e-003 2.90993747e-004 1.89145934e-003 2.09515505e-002
      3.92841548e-003 4.21940954e-003 5.81987493e-004 5.81987493e-004
      1.45496873e-004 2.90993747e-004 0. 1.01847807e-003 1.89145934e-003
      2.90993747e-004 0. 1.45496873e-004 4.80139675e-003 8.72981269e-004
      1.03302784e-002 3.89931612e-002 1.33857122e-002 4.65589995e-003
      1.60046562e-003 4.07391228e-003 8.00232776e-003 1.60046562e-003
      3.78291868e-003 1.96420774e-002 2.03695614e-003 4.36490634e-004
      2.90993747e-004 2.90993747e-004 8.87530949e-003 5.81987493e-004
      5.67437802e-003 2.40069833e-002 4.36490634e-003 8.72981269e-004
      4.36490634e-004 4.36490634e-004 1.16397499e-003 0. 8.72981269e-004
      4.36490634e-004 6.11086888e-003 7.27484352e-004 1.45496873e-004
      2.90993747e-004 1.32402154e-002 5.81987493e-004 9.16630309e-003
      1.52771715e-002 1.33857122e-002 5.09239035e-003 1.01847807e-003
      4.07391228e-003 4.80139675e-003 1.16397499e-003 4.36490634e-003
      2.12425441e-002 1.89145934e-003 1.16397499e-003 0. 2.90993747e-004
      4.21940954e-003 1.16397499e-003 7.85683095e-003 2.19700281e-002
      5.52888121e-003 1.45496870e-003 5.81987493e-004 5.81987493e-004
      1.01847807e-003 0. 5.81987493e-004 5.81987493e-004 7.12934695e-003
      1.45496873e-004 0. 7.27484352e-004 1.54226683e-002 8.72981269e-004
      2.10970473e-002 1.49861779e-002 9.45729669e-003 6.83835289e-003
      7.27484352e-004 3.34642804e-003 2.61894381e-003 4.36490634e-004
      4.21940954e-003 2.21155249e-002 1.74596254e-003 8.72981269e-004 0.
      2.90993747e-004 3.78291868e-003 1.89145934e-003 6.54735928e-003
      6.13996796e-002 7.56583735e-003 2.47344677e-003 1.30947190e-003
      1.16397499e-003 4.36490634e-004 0. 0. 1.16397499e-003
      3.49192508e-003 8.72981269e-004 4.36490634e-004 5.81987493e-004
      8.00232776e-003 2.90993747e-004 1.07667688e-002 2.02240646e-002
      8.58431589e-003 7.12934695e-003 1.74596254e-003 2.47344677e-003
      3.20093124e-003 4.36490634e-004 1.89145934e-003 8.87530949e-003
      1.30947190e-003 4.36490634e-004 0. 1.45496873e-004 2.32794997e-003
      8.72981269e-004 8.00232776e-003 1.38222026e-002 5.52888121e-003
      4.51040315e-003 1.89145934e-003 8.72981269e-004 4.36490634e-004 0.
      1.60046562e-003 1.30947190e-003 2.61894381e-003 7.27484352e-004
      2.90993747e-004 4.36490634e-004 1.38222026e-002 4.36490634e-004
      5.60162961e-002 3.02633494e-002 1.51316747e-002 5.23788761e-003
      1.45496870e-003 5.81987482e-003 6.40186248e-003 1.01847807e-003
      6.25636568e-003 1.68776382e-002 1.74596254e-003 4.36490634e-004
      2.90993747e-004 2.90993747e-004 5.38338441e-003 8.72981269e-004
      6.54735928e-003 2.12425441e-002 4.94689355e-003 1.01847807e-003
      4.36490634e-004 8.72981269e-004 4.36490634e-004 0. 8.72981269e-004
      8.72981269e-004 5.96537162e-003 1.45496873e-004 1.45496873e-004 0.
      2.18245313e-002 7.27484352e-004 2.77899019e-002 1.49861779e-002
      6.83835289e-003 8.00232776e-003 4.36490634e-004 3.34642804e-003
      1.60046562e-003 0. 1.74596254e-003 8.43881909e-003 5.81987493e-004
      5.81987493e-004 0. 1.45496873e-004 2.90993741e-003 8.72981269e-004
      8.00232776e-003 2.69169211e-002 6.11086888e-003 5.96537162e-003
      8.72981269e-004 1.01847807e-003 4.36490634e-004 1.45496873e-004
      1.16397499e-003 1.30947190e-003 4.36490634e-003 1.74596254e-003
      4.36490634e-004 5.81987493e-004 9.02080629e-003 2.76444061e-003
      3.50647457e-002 9.80648920e-002 1.57136619e-002 1.25127314e-002
      1.01847807e-003 4.21940954e-003 2.32794997e-003 7.27484352e-004
      3.05543444e-003 1.42586939e-002 1.01847807e-003 1.01847807e-003
      2.90993747e-004 2.90993747e-004 2.61894381e-003 1.89145934e-003
      1.25127314e-002 3.57922316e-002 1.42586939e-002 6.83835289e-003
      4.36490634e-004 7.27484352e-004 7.27484352e-004 0. 1.01847807e-003
      1.45496870e-003 8.58431589e-003 1.01847807e-003 8.72981269e-004
      8.72981269e-004 1.57136619e-002 1.60046562e-003 4.93234396e-002
      4.78684716e-002 1.61501523e-002 1.14942528e-002 1.89145934e-003
      7.56583735e-003 3.34642804e-003 1.01847807e-003 4.94689355e-003
      1.45496875e-002 8.72981269e-004 7.27484352e-004 1.45496873e-004
      1.45496873e-004 3.78291868e-003 5.81987493e-004 1.14942528e-002
      2.93903686e-002 1.14942528e-002 2.47344677e-003 1.60046562e-003
      1.89145934e-003 1.30947190e-003 4.36490634e-004 2.76444061e-003
      1.89145934e-003 4.21940954e-003 1.74596254e-003 5.81987493e-004
      8.72981269e-004 2.05150601e-002 1.45496870e-003 4.69954908e-002
      3.69562060e-002 8.43881909e-003 9.89378709e-003 1.01847807e-003
      4.07391228e-003 2.76444061e-003 4.36490634e-004 2.61894381e-003
      1.10577624e-002 1.16397499e-003 8.72981269e-004 2.90993747e-004
      2.90993747e-004 2.32794997e-003 7.27484352e-004 1.23672346e-002
      4.07391228e-002 8.58431589e-003 7.56583735e-003 5.81987493e-004
      1.30947190e-003 5.81987493e-004 1.45496873e-004 1.45496870e-003
      1.30947190e-003 4.07391228e-003 7.27484352e-004 2.90993747e-004
      4.36490634e-004 1.49861779e-002 2.18245317e-003 6.69285581e-002
      1.00247346e-001</_>
    <_>
      1.16397496e-002 9.02080629e-003 7.27484352e-004 3.78291868e-003
      3.20093124e-003 2.90993747e-004 1.74596254e-003 7.42034055e-003
      2.90993741e-003 1.16397499e-003 0. 1.45496873e-004 5.23788761e-003
      1.45496870e-003 7.42034055e-003 1.55681651e-002 9.45729669e-003
      8.58431589e-003 4.36490634e-004 1.01847807e-003 5.81987493e-004
      1.45496873e-004 1.01847807e-003 8.72981269e-004 4.36490634e-003
      5.81987493e-004 4.36490634e-004 2.90993747e-004 2.95358654e-002
      1.01847807e-003 4.19031009e-002 3.78291868e-002 1.12032592e-002
      9.60279349e-003 1.30947190e-003 4.51040315e-003 2.47344677e-003
      4.36490634e-004 2.90993741e-003 1.28037250e-002 7.27484352e-004
      1.30947190e-003 1.45496873e-004 4.36490634e-004 1.45496870e-003
      1.16397499e-003 1.20762400e-002 4.04481292e-002 9.16630309e-003
      2.76444061e-003 1.16397499e-003 7.27484352e-004 5.81987493e-004 0.
      8.72981269e-004 1.16397499e-003 4.36490634e-003 1.16397499e-003
      7.27484352e-004 1.45496873e-004 1.71686318e-002 1.01847807e-003
      8.03142712e-002 5.45613281e-002 1.36767058e-002 9.02080629e-003
      7.27484352e-004 2.76444061e-003 3.63742188e-003 1.01847807e-003
      3.49192508e-003 1.10577624e-002 2.90993747e-004 8.72981269e-004
      2.90993747e-004 1.45496873e-004 3.20093124e-003 7.27484352e-004
      8.87530949e-003 5.74712642e-002 8.00232776e-003 4.80139675e-003
      4.36490634e-004 8.72981269e-004 4.36490634e-004 0. 7.27484352e-004
      5.81987493e-004 3.05543444e-003 1.01847807e-003 4.36490634e-004 0.
      9.02080629e-003 1.01847807e-003 2.34249961e-002 4.16121073e-002
      1.77506190e-002 1.01847807e-002 2.90993741e-003 6.11086888e-003
      5.23788761e-003 1.16397499e-003 6.11086888e-003 2.21155249e-002
      2.18245317e-003 1.45496870e-003 0. 5.81987493e-004 4.21940954e-003
      1.60046562e-003 7.71133415e-003 4.26305830e-002 1.09122656e-002
      8.87530949e-003 1.30947190e-003 8.72981269e-004 7.27484352e-004
      1.45496873e-004 8.72981269e-004 2.03695614e-003 5.67437802e-003
      2.18245317e-003 8.72981269e-004 1.30947190e-003 1.28037250e-002
      2.03695614e-003 2.41524801e-002 3.55012380e-002 6.54735928e-003
      1.45496870e-003 4.36490634e-004 1.74596254e-003 5.09239035e-003
      1.45496873e-004 3.05543444e-003 5.96537162e-003 4.36490634e-004
      1.45496873e-004 4.36490634e-004 0. 4.80139675e-003 2.90993747e-004
      4.21940954e-003 2.90993741e-003 2.03695614e-003 1.45496873e-004 0.
      5.81987493e-004 5.81987493e-004 0. 2.90993747e-004 5.81987493e-004
      4.51040315e-003 2.90993747e-004 0. 2.90993747e-004 1.67321395e-002
      8.72981269e-004 9.74829029e-003 6.11086888e-003 7.56583735e-003
      6.83835289e-003 8.72981269e-004 5.38338441e-003 3.92841548e-003
      5.81987493e-004 3.49192508e-003 2.34249961e-002 7.27484352e-004 0.
      1.45496873e-004 5.81987493e-004 2.32794997e-003 4.36490634e-004
      7.71133415e-003 5.84897436e-002 3.78291868e-003 3.63742188e-003
      7.27484352e-004 1.74596254e-003 2.90993747e-004 0. 1.01847807e-003
      2.76444061e-003 2.76444061e-003 1.30947190e-003 1.45496873e-004
      2.90993747e-004 7.27484375e-003 1.45496870e-003 2.38614865e-002
      6.53280988e-002 4.80139675e-003 3.20093124e-003 4.36490634e-004
      3.05543444e-003 2.47344677e-003 4.36490634e-004 1.45496870e-003
      1.13487560e-002 5.81987493e-004 4.36490634e-004 0. 2.90993747e-004
      1.16397499e-003 1.45496873e-004 2.90993741e-003 1.49861779e-002
      1.74596254e-003 2.76444061e-003 4.36490634e-004 1.01847807e-003 0.
      0. 2.90993747e-004 1.45496870e-003 1.89145934e-003 4.36490634e-004
      1.45496873e-004 1.45496873e-004 4.94689355e-003 8.72981269e-004
      9.60279349e-003 3.62287201e-002 8.29332136e-003 2.32794997e-003
      2.90993747e-004 2.61894381e-003 6.11086888e-003 1.45496873e-004
      2.90993741e-003 8.00232776e-003 8.72981269e-004 4.36490634e-004 0.
      0. 4.65589995e-003 5.81987493e-004 4.21940954e-003 1.10577624e-002
      3.92841548e-003 2.18245317e-003 4.36490634e-004 8.72981269e-004
      7.27484352e-004 1.45496873e-004 1.45496873e-004 4.36490634e-004
      4.51040315e-003 4.36490634e-004 4.36490634e-004 1.45496873e-004
      1.86235998e-002 1.74596254e-003 1.97875742e-002 2.35704929e-002
      5.67437802e-003 2.61894381e-003 4.36490634e-004 2.76444061e-003
      2.32794997e-003 4.36490634e-004 2.61894381e-003 1.46951843e-002
      1.30947190e-003 5.81987493e-004 2.90993747e-004 2.90993747e-004
      1.89145934e-003 5.81987493e-004 4.36490634e-003 2.83718910e-002
      3.05543444e-003 1.60046562e-003 2.90993747e-004 2.90993747e-004
      5.81987493e-004 0. 1.45496873e-004 1.01847807e-003 2.03695614e-003
      5.81987493e-004 1.45496873e-004 2.90993747e-004 8.87530949e-003
      2.90993747e-004 9.45729669e-003 3.25912982e-002 1.13487560e-002
      6.69285608e-003 2.03695614e-003 7.42034055e-003 2.76444061e-003
      4.36490634e-004 3.49192508e-003 2.00785678e-002 1.45496870e-003
      8.72981269e-004 1.45496873e-004 1.45496873e-004 1.30947190e-003
      7.27484352e-004 6.98385015e-003 5.95082194e-002 6.25636568e-003
      3.63742188e-003 2.90993747e-004 1.30947190e-003 4.36490634e-004
      1.45496873e-004 2.90993747e-004 2.03695614e-003 5.23788761e-003
      1.16397499e-003 0. 5.81987493e-004 7.71133415e-003 1.74596254e-003
      1.38222026e-002 2.92448718e-002 1.19307432e-002 1.13487560e-002
      1.16397499e-003 3.63742188e-003 2.32794997e-003 5.81987493e-004
      4.21940954e-003 5.96537162e-003 1.45496870e-003 7.27484352e-004
      2.90993747e-004 1.45496873e-004 4.21940954e-003 4.36490634e-004
      9.16630309e-003 2.18245313e-002 8.14782456e-003 4.21940954e-003
      4.36490634e-004 1.30947190e-003 2.90993747e-004 0. 1.74596254e-003
      1.60046562e-003 3.78291868e-003 4.36490634e-004 4.36490634e-004 0.
      2.53164563e-002 1.16397499e-003 5.47068231e-002 3.85566726e-002
      1.25127314e-002 8.29332136e-003 5.81987493e-004 3.34642804e-003
      4.94689355e-003 2.90993747e-004 1.74596254e-003 1.00392839e-002
      8.72981269e-004 1.45496873e-004 4.36490634e-004 1.45496873e-004
      2.76444061e-003 2.90993747e-004 7.71133415e-003 2.85173878e-002
      1.17852464e-002 9.60279349e-003 7.27484352e-004 8.72981269e-004
      5.81987493e-004 1.45496873e-004 4.36490634e-004 5.81987493e-004
      3.78291868e-003 5.81987493e-004 2.90993747e-004 2.90993747e-004
      2.00785678e-002 1.01847807e-003 3.89931612e-002 4.23395894e-002
      5.67437802e-003 1.09122656e-002 4.36490634e-004 2.47344677e-003
      7.27484352e-004 0. 1.30947190e-003 9.16630309e-003 4.36490634e-004
      1.30947190e-003 2.90993747e-004 2.90993747e-004 1.30947190e-003
      2.90993747e-004 1.07667688e-002 4.67044972e-002 1.00392839e-002
      1.29492218e-002 2.90993747e-004 7.27484352e-004 2.90993747e-004
      2.90993747e-004 4.36490634e-004 1.01847807e-003 1.60046562e-003
      1.01847807e-003 1.45496873e-004 4.36490634e-004 5.38338441e-003
      1.45496870e-003 4.91779447e-002 1.41277462e-001 1.61501523e-002
      1.39677003e-002 4.36490634e-004 5.23788761e-003 3.34642804e-003
      5.81987493e-004 3.05543444e-003 6.83835289e-003 1.74596254e-003
      1.45496870e-003 1.45496873e-004 7.27484352e-004 3.05543444e-003
      1.30947190e-003 1.38222026e-002 4.93234396e-002 1.80416126e-002
      9.89378709e-003 2.18245317e-003 1.89145934e-003 1.01847807e-003
      4.36490634e-004 2.61894381e-003 2.18245317e-003 5.09239035e-003
      2.03695614e-003 1.45496873e-004 1.01847807e-003 9.02080629e-003
      2.47344677e-003 6.02357052e-002 1.07376695e-001 2.08060537e-002
      2.10970473e-002 1.16397499e-003 3.49192508e-003 3.05543444e-003
      1.01847807e-003 2.90993741e-003 5.96537162e-003 2.47344677e-003
      1.60046562e-003 4.36490634e-004 8.72981269e-004 4.36490634e-003
      7.27484352e-004 2.02240646e-002 5.06329127e-002 2.64804307e-002
      1.23672346e-002 1.60046562e-003 2.18245317e-003 2.90993747e-004 0.
      2.32794997e-003 1.89145934e-003 5.09239035e-003 1.89145934e-003
      1.16397499e-003 1.16397499e-003 1.26582282e-002 2.61894381e-003
      1.03593774e-001 7.43489042e-002 1.74596254e-002 1.62956491e-002
      2.32794997e-003 2.32794997e-003 1.89145934e-003 5.81987493e-004
      5.09239035e-003 7.85683095e-003 2.90993741e-003 8.72981269e-004
      4.36490634e-004 1.16397499e-003 4.21940954e-003 1.74596254e-003
      2.29885057e-002 4.67044972e-002 2.32794993e-002 1.51316747e-002
      1.01847807e-003 2.18245317e-003 1.01847807e-003 0. 1.45496870e-003
      2.76444061e-003 6.98385015e-003 2.03695614e-003 5.81987493e-004
      1.01847807e-003 1.67321395e-002 2.32794997e-003 8.96260738e-002
      9.36999843e-002</_>
    <_>
      1.10577624e-002 1.16397496e-002 1.60046562e-003 4.94689355e-003
      3.05543444e-003 2.90993747e-004 1.60046562e-003 9.02080629e-003
      1.16397499e-003 1.45496873e-004 0. 2.90993747e-004 1.60046562e-003
      1.45496873e-004 5.81987482e-003 2.79354006e-002 1.16397496e-002
      6.11086888e-003 2.90993747e-004 1.30947190e-003 4.36490634e-004
      1.45496873e-004 1.30947190e-003 7.27484352e-004 3.05543444e-003
      2.03695614e-003 1.45496873e-004 2.90993747e-004 7.71133415e-003
      2.90993747e-004 2.67714243e-002 6.00902103e-002 1.55681651e-002
      6.69285608e-003 1.45496870e-003 2.61894381e-003 4.94689355e-003
      1.30947190e-003 2.90993741e-003 6.54735928e-003 1.16397499e-003
      7.27484352e-004 0. 5.81987493e-004 5.96537162e-003 8.72981269e-004
      1.12032592e-002 1.41131971e-002 5.23788761e-003 1.89145934e-003
      7.27484352e-004 7.27484352e-004 8.72981269e-004 0. 1.60046562e-003
      1.45496873e-004 6.25636568e-003 8.72981269e-004 2.90993747e-004
      5.81987493e-004 3.20093110e-002 1.16397499e-003 8.55521634e-002
      4.01571356e-002 1.10577624e-002 1.44041907e-002 2.61894381e-003
      5.09239035e-003 2.90993741e-003 2.90993747e-004 4.21940954e-003
      7.56583735e-003 1.30947190e-003 8.72981269e-004 4.36490634e-004
      2.90993747e-004 3.78291868e-003 1.74596254e-003 2.19700281e-002
      5.35428487e-002 8.43881909e-003 5.23788761e-003 1.01847807e-003
      1.30947190e-003 8.72981269e-004 1.45496873e-004 2.03695614e-003
      2.32794997e-003 3.63742188e-003 7.27484352e-004 5.81987493e-004
      4.36490634e-004 1.71686318e-002 1.30947190e-003 8.61341506e-002
      7.01294914e-002 1.25127314e-002 1.09122656e-002 2.47344677e-003
      5.67437802e-003 5.38338441e-003 1.45496870e-003 4.07391228e-003
      1.81871094e-002 2.03695614e-003 7.27484352e-004 4.36490634e-004
      1.45496873e-004 5.23788761e-003 1.16397499e-003 1.41131971e-002
      5.45613281e-002 7.71133415e-003 4.07391228e-003 1.01847807e-003
      1.74596254e-003 8.72981269e-004 1.45496873e-004 8.72981269e-004
      1.60046562e-003 6.25636568e-003 1.30947190e-003 7.27484352e-004
      2.90993747e-004 1.23672346e-002 1.74596254e-003 2.73534115e-002
      3.82656790e-002 3.05543444e-003 2.61894381e-003 4.36490634e-004
      2.03695614e-003 3.49192508e-003 1.45496873e-004 2.18245317e-003
      1.39677003e-002 5.81987493e-004 2.90993747e-004 1.45496873e-004 0.
      7.27484352e-004 1.45496873e-004 2.76444061e-003 2.37159897e-002
      1.74596254e-003 2.47344677e-003 2.90993747e-004 5.81987493e-004
      2.90993747e-004 1.45496873e-004 0. 7.27484352e-004 8.72981269e-004
      1.45496873e-004 0. 0. 3.20093124e-003 0. 6.98385015e-003
      1.92055870e-002 1.33857122e-002 2.76444061e-003 1.01847807e-003
      2.03695614e-003 1.01847807e-002 1.16397499e-003 3.78291868e-003
      8.29332136e-003 1.89145934e-003 2.90993747e-004 2.90993747e-004
      1.45496873e-004 3.63742188e-003 1.45496873e-004 2.61894381e-003
      7.56583735e-003 3.63742188e-003 1.45496873e-004 2.90993747e-004
      2.90993747e-004 2.32794997e-003 0. 0. 4.36490634e-004
      5.09239035e-003 5.81987493e-004 4.36490634e-004 1.45496873e-004
      1.39677003e-002 5.81987493e-004 1.12032592e-002 1.09122656e-002
      8.72981269e-003 6.11086888e-003 2.47344677e-003 8.00232776e-003
      3.92841548e-003 4.36490634e-004 6.69285608e-003 2.93903686e-002
      7.27484352e-004 2.90993747e-004 5.81987493e-004 5.81987493e-004
      3.63742188e-003 1.16397499e-003 6.54735928e-003 5.51433153e-002
      4.21940954e-003 1.74596254e-003 1.01847807e-003 8.72981269e-004
      8.72981269e-004 0. 4.36490634e-004 1.16397499e-003 2.90993741e-003
      0. 0. 1.45496873e-004 4.80139675e-003 7.27484352e-004
      1.65866427e-002 3.57922316e-002 1.32402154e-002 3.05543444e-003
      8.72981269e-004 3.49192508e-003 8.00232776e-003 1.16397499e-003
      5.96537162e-003 2.38614865e-002 1.45496870e-003 1.45496873e-004
      2.90993747e-004 7.27484352e-004 5.52888121e-003 7.27484352e-004
      8.72981269e-003 3.82656790e-002 3.49192508e-003 1.01847807e-003 0.
      1.01847807e-003 1.45496873e-004 1.45496873e-004 1.45496873e-004
      1.89145934e-003 5.09239035e-003 4.36490634e-004 0. 2.90993747e-004
      1.58591587e-002 1.01847807e-003 1.58591587e-002 3.49192508e-002
      4.07391228e-003 6.40186248e-003 5.81987493e-004 3.20093124e-003
      2.03695614e-003 5.81987493e-004 2.47344677e-003 1.30947186e-002
      1.45496873e-004 2.90993747e-004 0. 1.45496873e-004 1.74596254e-003
      2.90993747e-004 4.07391228e-003 1.62956491e-002 4.21940954e-003
      3.34642804e-003 1.16397499e-003 1.16397499e-003 2.90993747e-004 0.
      1.45496873e-004 1.60046562e-003 1.16397499e-003 1.01847807e-003 0.
      0. 7.27484375e-003 1.89145934e-003 1.73141286e-002 4.17576022e-002
      1.06212720e-002 3.05543444e-003 7.27484352e-004 2.47344677e-003
      5.52888121e-003 5.81987493e-004 2.47344677e-003 1.58591587e-002
      1.30947190e-003 4.36490634e-004 1.45496873e-004 0. 2.61894381e-003
      5.81987493e-004 3.63742188e-003 2.34249961e-002 3.92841548e-003
      7.27484352e-004 0. 1.45496873e-004 5.81987493e-004 1.45496873e-004
      2.90993747e-004 0. 2.47344677e-003 4.36490634e-004 2.90993747e-004
      5.81987493e-004 3.49192508e-003 5.81987493e-004 2.90993741e-003
      1.14942528e-002 1.29492218e-002 6.98385015e-003 1.01847807e-003
      3.34642804e-003 1.60046562e-003 1.01847807e-003 2.18245317e-003
      1.07667688e-002 1.45496870e-003 5.81987493e-004 1.45496873e-004
      2.90993747e-004 3.05543444e-003 1.16397499e-003 7.42034055e-003
      5.31063601e-002 7.85683095e-003 3.20093124e-003 1.45496873e-004
      7.27484352e-004 5.81987493e-004 1.45496873e-004 7.27484352e-004
      8.72981269e-004 3.78291868e-003 7.27484352e-004 2.90993747e-004
      7.27484352e-004 7.71133415e-003 1.89145934e-003 2.47344691e-002
      3.11363302e-002 1.25127314e-002 7.85683095e-003 1.30947190e-003
      2.18245317e-003 2.03695614e-003 7.27484352e-004 2.76444061e-003
      4.21940954e-003 1.01847807e-003 4.36490634e-004 1.45496873e-004
      1.45496873e-004 3.92841548e-003 4.36490634e-004 5.67437802e-003
      1.16397496e-002 1.17852464e-002 9.31179989e-003 7.27484352e-004
      1.74596254e-003 1.30947190e-003 0. 4.36490634e-004 1.01847807e-003
      5.81987482e-003 1.74596254e-003 7.27484352e-004 1.01847807e-003
      2.32794993e-002 1.74596254e-003 5.31063601e-002 4.20485958e-002
      7.42034055e-003 1.09122656e-002 1.45496873e-004 3.34642804e-003
      1.60046562e-003 5.81987493e-004 1.74596254e-003 1.22217378e-002
      5.81987493e-004 7.27484352e-004 2.90993747e-004 1.45496873e-004
      1.60046562e-003 8.72981269e-004 1.35312090e-002 5.29608615e-002
      9.60279349e-003 1.17852464e-002 1.01847807e-003 1.60046562e-003
      5.81987493e-004 1.45496873e-004 1.01847807e-003 1.60046562e-003
      2.47344677e-003 2.32794997e-003 4.36490634e-004 2.90993747e-004
      1.04757752e-002 3.20093124e-003 7.50763863e-002 1.30219698e-001
      6.98385015e-003 1.07667688e-002 7.27484352e-004 4.80139675e-003
      3.63742188e-003 2.90993747e-004 2.03695614e-003 1.42586939e-002
      4.36490634e-004 5.81987493e-004 0. 1.45496873e-004 2.18245317e-003
      2.90993747e-004 1.23672346e-002 5.17968871e-002 6.69285608e-003
      1.01847807e-002 7.27484352e-004 2.61894381e-003 4.36490634e-004
      4.36490634e-004 1.74596254e-003 3.34642804e-003 1.74596254e-003
      8.72981269e-004 8.72981269e-004 1.01847807e-003 5.96537162e-003
      2.03695614e-003 6.59100860e-002 1.58009604e-001 6.11086888e-003
      5.52888121e-003 8.72981269e-004 1.16397499e-003 1.74596254e-003 0.
      2.47344677e-003 6.98385015e-003 1.30947190e-003 7.27484352e-004 0.
      0. 3.92841548e-003 5.81987493e-004 1.29492218e-002 3.92841548e-002
      8.87530949e-003 8.00232776e-003 1.60046562e-003 1.01847807e-003
      4.36490634e-004 0. 8.72981269e-004 1.89145934e-003 5.09239035e-003
      8.72981269e-004 1.45496873e-004 8.72981269e-004 1.81871094e-002
      2.18245317e-003 8.64251405e-002 1.15233526e-001 1.09122656e-002
      1.03302784e-002 2.90993747e-004 2.18245317e-003 2.61894381e-003
      7.27484352e-004 1.89145934e-003 6.54735928e-003 7.27484352e-004
      8.72981269e-004 2.90993747e-004 4.36490634e-004 3.63742188e-003
      1.45496873e-004 1.80416126e-002 4.56860177e-002 1.51316747e-002
      9.89378709e-003 1.45496870e-003 7.27484352e-004 7.27484352e-004
      2.90993747e-004 1.45496870e-003 1.30947190e-003 6.11086888e-003
      8.72981269e-004 1.30947190e-003 1.45496870e-003 1.41131971e-002
      2.76444061e-003 9.20995176e-002 9.96653587e-002</_>
    <_>
      2.00785678e-002 1.42586939e-002 1.74596254e-003 6.11086888e-003
      5.81987482e-003 8.72981269e-004 3.34642804e-003 7.85683095e-003
      2.76444061e-003 4.36490634e-004 4.36490634e-004 4.36490634e-004
      8.29332136e-003 1.45496870e-003 1.10577624e-002 1.80416126e-002
      1.04757752e-002 1.89145934e-003 1.60046562e-003 1.45496870e-003
      5.81987493e-004 0. 1.30947190e-003 2.03695614e-003 7.12934695e-003
      5.81987493e-004 4.36490634e-004 4.36490634e-004 2.93903686e-002
      1.01847807e-003 5.55798039e-002 2.28430089e-002 1.28037250e-002
      1.22217378e-002 1.16397499e-003 5.09239035e-003 2.18245317e-003
      2.90993747e-004 2.18245317e-003 9.02080629e-003 5.81987493e-004
      8.72981269e-004 1.45496873e-004 4.36490634e-004 3.49192508e-003
      7.27484352e-004 1.36767058e-002 3.27367969e-002 1.09122656e-002
      5.23788761e-003 7.27484352e-004 1.16397499e-003 5.81987493e-004
      2.90993747e-004 8.72981269e-004 2.03695614e-003 5.09239035e-003
      8.72981269e-004 2.90993747e-004 1.01847807e-003 1.07667688e-002
      1.45496870e-003 4.96144332e-002 4.13211137e-002 1.62956491e-002
      1.14942528e-002 1.45496870e-003 6.69285608e-003 2.61894381e-003
      7.27484352e-004 2.90993741e-003 1.64411459e-002 2.18245317e-003
      1.89145934e-003 1.45496873e-004 5.81987493e-004 4.36490634e-003
      2.47344677e-003 1.29492218e-002 8.74436200e-002 1.22217378e-002
      4.94689355e-003 7.27484352e-004 1.60046562e-003 5.81987493e-004
      1.45496873e-004 1.45496873e-004 1.89145934e-003 4.94689355e-003
      5.81987493e-004 7.27484352e-004 5.81987493e-004 8.14782456e-003
      1.30947190e-003 2.95358654e-002 4.74319793e-002 1.84781030e-002
      1.73141286e-002 1.16397499e-003 4.36490634e-003 4.36490634e-003
      1.30947190e-003 3.34642804e-003 1.44041907e-002 2.18245317e-003
      8.72981269e-004 2.90993747e-004 1.16397499e-003 3.05543444e-003
      1.45496873e-004 1.44041907e-002 5.44158295e-002 1.93510838e-002
      1.26582282e-002 8.72981269e-004 1.30947190e-003 1.30947190e-003 0.
      1.30947190e-003 1.16397499e-003 7.71133415e-003 2.18245317e-003 0.
      5.81987493e-004 1.01847807e-002 1.60046562e-003 5.65982834e-002
      7.39124119e-002 8.58431589e-003 4.21940954e-003 5.81987493e-004
      2.32794997e-003 3.34642804e-003 4.36490634e-004 2.61894381e-003
      6.40186248e-003 7.27484352e-004 0. 0. 2.90993747e-004
      3.49192508e-003 4.36490634e-004 3.49192508e-003 1.10577624e-002
      3.20093124e-003 2.03695614e-003 1.45496873e-004 4.36490634e-004
      4.36490634e-004 0. 7.27484352e-004 7.27484352e-004 3.49192508e-003
      4.36490634e-004 1.45496873e-004 1.45496873e-004 1.99330710e-002
      1.16397499e-003 2.38614865e-002 1.74596254e-002 6.40186248e-003
      8.00232776e-003 2.90993747e-004 3.63742188e-003 1.74596254e-003
      4.36490634e-004 8.72981269e-004 1.12032592e-002 1.45496873e-004
      1.45496873e-004 0. 0. 4.36490634e-004 2.90993747e-004
      2.18245317e-003 2.08060537e-002 6.25636568e-003 6.25636568e-003
      2.90993747e-004 4.36490634e-004 0. 1.45496873e-004 0.
      1.89145934e-003 1.16397499e-003 8.72981269e-004 2.90993747e-004
      1.45496873e-004 2.18245317e-003 7.27484352e-004 1.17852464e-002
      4.78684716e-002 3.78291868e-003 2.18245317e-003 1.45496873e-004
      1.45496873e-004 1.89145934e-003 0. 0. 8.72981269e-004
      4.36490634e-004 0. 0. 0. 4.36490634e-004 0. 5.81987493e-004
      2.03695614e-003 2.76444061e-003 2.76444061e-003 1.45496873e-004
      2.90993747e-004 0. 0. 1.45496873e-004 0. 3.05543444e-003
      2.90993747e-004 1.45496873e-004 0. 7.71133415e-003 8.72981269e-004
      6.69285608e-003 7.42034055e-003 1.25127314e-002 3.49192508e-003
      1.45496870e-003 3.78291868e-003 6.69285608e-003 4.36490634e-004
      6.69285608e-003 2.85173878e-002 7.27484352e-004 1.45496873e-004
      1.45496873e-004 2.90993747e-004 3.78291868e-003 5.81987493e-004
      3.63742188e-003 2.35704929e-002 4.07391228e-003 1.16397499e-003
      1.45496873e-004 4.36490634e-004 4.36490634e-004 0. 2.90993747e-004
      8.72981269e-004 2.61894381e-003 7.27484352e-004 0. 1.45496873e-004
      7.27484375e-003 4.36490634e-004 6.69285608e-003 1.13487560e-002
      8.00232776e-003 2.32794997e-003 1.74596254e-003 2.03695614e-003
      4.80139675e-003 5.81987493e-004 3.63742188e-003 1.74596254e-002
      1.01847807e-003 0. 1.45496873e-004 1.45496873e-004 2.03695614e-003
      1.45496873e-004 1.74596254e-003 1.12032592e-002 4.21940954e-003
      2.32794997e-003 4.36490634e-004 5.81987493e-004 5.81987493e-004 0.
      2.90993747e-004 4.36490634e-004 3.20093124e-003 2.90993747e-004 0.
      1.45496873e-004 5.81987482e-003 8.72981269e-004 5.09239035e-003
      1.33857122e-002 6.40186248e-003 3.63742188e-003 1.30947190e-003
      5.09239035e-003 1.74596254e-003 4.36490634e-004 2.32794997e-003
      1.51316747e-002 2.90993747e-004 1.01847807e-003 0. 2.90993747e-004
      1.45496870e-003 1.01847807e-003 5.52888121e-003 3.92841548e-002
      2.76444061e-003 3.63742188e-003 7.27484352e-004 8.72981269e-004
      5.81987493e-004 0. 4.36490634e-004 1.16397499e-003 7.27484352e-004
      4.36490634e-004 2.90993747e-004 5.81987493e-004 2.61894381e-003
      5.81987493e-004 2.44434755e-002 4.46675383e-002 5.96537162e-003
      2.76444061e-003 4.36490634e-004 2.03695614e-003 3.78291868e-003
      8.72981269e-004 2.47344677e-003 8.00232776e-003 7.27484352e-004
      2.90993747e-004 1.45496873e-004 0. 5.96537162e-003 7.27484352e-004
      8.00232776e-003 1.39677003e-002 3.05543444e-003 1.01847807e-003
      2.90993747e-004 5.81987493e-004 4.36490634e-004 1.45496873e-004
      8.72981269e-004 7.27484352e-004 5.09239035e-003 8.72981269e-004
      7.27484352e-004 2.90993747e-004 3.57922316e-002 2.18245317e-003
      6.73650503e-002 3.88476662e-002 7.85683095e-003 5.67437802e-003
      2.90993747e-004 2.76444061e-003 4.65589995e-003 5.81987493e-004
      3.05543444e-003 6.40186248e-003 4.36490634e-004 7.27484352e-004 0.
      1.45496873e-004 2.76444061e-003 4.36490634e-004 3.20093124e-003
      1.51316747e-002 6.25636568e-003 8.14782456e-003 5.81987493e-004
      1.30947190e-003 1.16397499e-003 0. 4.36490634e-004 1.16397499e-003
      3.49192508e-003 7.27484352e-004 2.90993747e-004 2.90993747e-004
      1.67321395e-002 1.01847807e-003 2.48799659e-002 3.62287201e-002
      1.26582282e-002 1.29492218e-002 1.30947190e-003 2.90993741e-003
      2.03695614e-003 8.72981269e-004 2.03695614e-003 5.23788761e-003
      1.30947190e-003 4.36490634e-004 0. 7.27484352e-004 1.16397499e-003
      5.81987493e-004 7.42034055e-003 1.90600902e-002 9.74829029e-003
      7.27484375e-003 1.16397499e-003 1.16397499e-003 7.27484352e-004
      1.45496873e-004 4.36490634e-004 1.74596254e-003 2.32794997e-003
      2.03695614e-003 5.81987493e-004 4.36490634e-004 5.38338441e-003
      1.60046562e-003 2.54619531e-002 4.71409857e-002 8.43881909e-003
      6.25636568e-003 7.27484352e-004 1.30947190e-003 1.45496870e-003
      2.90993747e-004 1.74596254e-003 3.49192508e-003 1.45496870e-003
      2.90993747e-004 1.45496873e-004 1.45496873e-004 1.16397499e-003
      7.27484352e-004 5.23788761e-003 1.16397496e-002 1.10577624e-002
      8.58431589e-003 2.90993747e-004 7.27484352e-004 4.36490634e-004 0.
      2.90993747e-004 4.36490634e-004 3.63742188e-003 8.72981269e-004
      2.90993747e-004 0. 9.60279349e-003 1.60046562e-003 2.40069833e-002
      3.34642790e-002 8.58431589e-003 5.38338441e-003 1.01847807e-003
      3.63742188e-003 2.03695614e-003 1.45496873e-004 3.49192508e-003
      5.81987482e-003 8.72981269e-004 4.36490634e-004 2.90993747e-004 0.
      2.32794997e-003 5.81987493e-004 8.72981269e-003 1.30947186e-002
      8.29332136e-003 5.52888121e-003 5.81987493e-004 7.27484352e-004
      1.01847807e-003 2.90993747e-004 2.90993747e-004 8.72981269e-004
      3.05543444e-003 1.16397499e-003 1.45496873e-004 1.45496873e-004
      1.74596254e-002 1.60046562e-003 4.97599319e-002 3.09908334e-002
      2.08060537e-002 1.23672346e-002 1.30947190e-003 2.32794997e-003
      5.23788761e-003 1.16397499e-003 3.34642804e-003 2.47344677e-003
      2.32794997e-003 5.81987493e-004 8.72981269e-004 0. 3.78291868e-003
      7.27484352e-004 1.39677003e-002 1.48406811e-002 1.54226683e-002
      1.07667688e-002 1.45496870e-003 1.30947190e-003 7.27484352e-004
      7.27484352e-004 1.01847807e-003 1.01847807e-003 5.81987482e-003
      1.74596254e-003 7.27484352e-004 7.27484352e-004 1.23672346e-002
      2.18245317e-003 5.64527884e-002 6.64920732e-002</_>
    <_>
      1.04757752e-002 5.52888121e-003 1.01847807e-003 5.09239035e-003
      2.90993741e-003 1.45496873e-004 3.05543444e-003 8.58431589e-003
      5.81987493e-004 7.27484352e-004 2.90993747e-004 5.81987493e-004
      5.23788761e-003 4.36490634e-004 8.43881909e-003 2.21155249e-002
      5.67437802e-003 1.01847807e-003 4.36490634e-004 5.81987493e-004
      4.36490634e-004 0. 8.72981269e-004 1.45496870e-003 5.52888121e-003
      7.27484352e-004 0. 8.72981269e-004 2.96813622e-002 1.16397499e-003
      4.48130369e-002 2.38614865e-002 5.23788761e-003 4.80139675e-003
      8.72981269e-004 4.94689355e-003 1.30947190e-003 8.72981269e-004
      2.47344677e-003 8.72981269e-003 2.90993747e-004 0. 1.45496873e-004
      0. 1.89145934e-003 4.36490634e-004 5.67437802e-003 1.77506190e-002
      4.65589995e-003 2.90993741e-003 5.81987493e-004 2.90993747e-004
      1.45496873e-004 1.45496873e-004 5.81987493e-004 7.27484352e-004
      2.76444061e-003 0. 1.45496873e-004 2.90993747e-004 9.60279349e-003
      8.72981269e-004 5.54343089e-002 2.74989083e-002 5.38338441e-003
      4.36490634e-003 2.90993747e-004 1.01847807e-003 1.60046562e-003 0.
      1.45496873e-004 4.94689355e-003 0. 2.90993747e-004 0. 0.
      1.45496873e-004 2.90993747e-004 1.89145934e-003 6.69285608e-003
      5.52888121e-003 2.61894381e-003 2.90993747e-004 1.45496873e-004
      1.45496873e-004 1.45496873e-004 1.45496873e-004 1.45496873e-004
      1.30947190e-003 1.16397499e-003 0. 1.45496873e-004 3.78291868e-003
      5.81987493e-004 7.27484375e-003 1.23672346e-002 8.29332136e-003
      2.18245317e-003 8.72981269e-004 2.03695614e-003 4.21940954e-003
      5.81987493e-004 3.92841548e-003 2.80808974e-002 4.36490634e-004
      4.36490634e-004 1.45496873e-004 5.81987493e-004 2.47344677e-003
      4.36490634e-004 8.58431589e-003 3.84111740e-002 3.92841548e-003
      1.01847807e-003 5.81987493e-004 8.72981269e-004 5.81987493e-004 0.
      1.45496873e-004 5.81987493e-004 4.07391228e-003 2.90993747e-004
      5.81987493e-004 7.27484352e-004 1.44041907e-002 1.01847807e-003
      2.00785678e-002 2.51709595e-002 5.52888121e-003 2.76444061e-003
      2.90993747e-004 1.74596254e-003 2.61894381e-003 0. 1.45496870e-003
      6.98385015e-003 5.81987493e-004 1.45496873e-004 0. 0.
      3.92841548e-003 5.81987493e-004 7.85683095e-003 2.00785678e-002
      3.20093124e-003 7.27484352e-004 1.45496873e-004 5.81987493e-004
      5.81987493e-004 1.45496873e-004 1.45496873e-004 2.90993747e-004
      5.23788761e-003 2.90993747e-004 2.90993747e-004 4.36490634e-004
      1.55681651e-002 7.27484352e-004 2.72079147e-002 1.84781030e-002
      4.94689355e-003 5.67437802e-003 5.81987493e-004 6.11086888e-003
      5.23788761e-003 7.27484352e-004 3.63742188e-003 3.24458033e-002
      1.45496873e-004 5.81987493e-004 0. 1.45496873e-004 2.47344677e-003
      0. 8.29332136e-003 6.05266988e-002 4.07391228e-003 2.90993741e-003
      2.90993747e-004 1.74596254e-003 0. 0. 4.36490634e-004
      1.74596254e-003 1.45496870e-003 5.81987493e-004 2.90993747e-004
      1.45496873e-004 5.96537162e-003 4.36490634e-004 1.92055870e-002
      5.26698679e-002 2.03695614e-003 2.03695614e-003 1.45496873e-004
      1.01847807e-003 2.18245317e-003 2.90993747e-004 2.03695614e-003
      1.03302784e-002 2.90993747e-004 2.90993747e-004 0. 1.45496873e-004
      2.18245317e-003 1.45496873e-004 5.09239035e-003 1.54226683e-002
      2.47344677e-003 2.03695614e-003 0. 2.90993747e-004 4.36490634e-004
      1.45496873e-004 0. 4.36490634e-004 2.03695614e-003 8.72981269e-004
      0. 4.36490634e-004 1.54226683e-002 4.36490634e-004 2.24065185e-002
      3.39007713e-002 4.65589995e-003 5.96537162e-003 5.81987493e-004
      3.34642804e-003 4.36490634e-003 4.36490634e-004 3.20093124e-003
      1.39677003e-002 2.90993747e-004 1.45496873e-004 2.90993747e-004
      1.45496873e-004 3.49192508e-003 7.27484352e-004 8.72981269e-003
      2.72079147e-002 5.09239035e-003 1.30947190e-003 4.36490634e-004
      1.01847807e-003 8.72981269e-004 1.45496873e-004 8.72981269e-004
      1.16397499e-003 6.40186248e-003 4.36490634e-004 1.45496873e-004
      2.90993747e-004 2.51709595e-002 1.30947190e-003 3.62287201e-002
      3.72471996e-002 5.52888121e-003 2.47344677e-003 7.27484352e-004
      2.76444061e-003 4.51040315e-003 5.81987493e-004 3.34642804e-003
      1.48406811e-002 0. 1.45496873e-004 0. 0. 1.45496870e-003
      1.45496873e-004 4.51040315e-003 2.60439403e-002 2.18245317e-003
      4.65589995e-003 1.45496873e-004 2.90993747e-004 2.90993747e-004
      1.45496873e-004 4.36490634e-004 1.45496870e-003 2.47344677e-003 0.
      0. 1.45496873e-004 8.00232776e-003 2.90993747e-004 1.62956491e-002
      5.70347756e-002 5.23788761e-003 6.69285608e-003 2.90993747e-004
      2.18245317e-003 1.60046562e-003 5.81987493e-004 1.01847807e-003
      7.42034055e-003 5.81987493e-004 8.72981269e-004 0. 1.45496873e-004
      2.32794997e-003 8.72981269e-004 3.92841548e-003 6.73650503e-002
      8.00232776e-003 3.49192508e-003 4.36490634e-004 8.72981269e-004
      2.90993747e-004 0. 7.27484352e-004 1.16397499e-003 6.40186248e-003
      1.60046562e-003 2.90993747e-004 2.90993747e-004 1.25127314e-002
      2.18245317e-003 2.16790345e-002 3.08453366e-002 7.85683095e-003
      9.16630309e-003 2.90993747e-004 2.18245317e-003 1.74596254e-003
      1.45496873e-004 1.60046562e-003 7.56583735e-003 5.81987493e-004
      4.36490634e-004 1.45496873e-004 2.90993747e-004 2.76444061e-003
      4.36490634e-004 9.60279349e-003 2.80808974e-002 9.16630309e-003
      4.94689355e-003 5.81987493e-004 1.16397499e-003 5.81987493e-004 0.
      1.74596254e-003 8.72981269e-004 5.67437802e-003 1.30947190e-003 0.
      5.81987493e-004 1.33857122e-002 1.74596254e-003 7.91502967e-002
      4.43765447e-002 5.67437802e-003 4.94689355e-003 2.90993747e-004
      3.92841548e-003 2.18245317e-003 2.90993747e-004 2.03695614e-003
      7.71133415e-003 8.72981269e-004 4.36490634e-004 1.45496873e-004 0.
      2.61894381e-003 4.36490634e-004 5.38338441e-003 2.08060537e-002
      5.81987482e-003 3.63742188e-003 4.36490634e-004 1.60046562e-003
      5.81987493e-004 1.45496873e-004 7.27484352e-004 2.61894381e-003
      3.63742188e-003 1.45496870e-003 1.45496873e-004 2.90993747e-004
      1.80416126e-002 1.74596254e-003 5.38338423e-002 6.30001426e-002
      5.09239035e-003 8.87530949e-003 7.27484352e-004 4.51040315e-003
      2.32794997e-003 4.36490634e-004 3.05543444e-003 1.06212720e-002
      7.27484352e-004 1.45496873e-004 0. 0. 2.03695614e-003
      8.72981269e-004 1.04757752e-002 4.84504588e-002 8.43881909e-003
      9.89378709e-003 1.16397499e-003 1.60046562e-003 4.36490634e-004 0.
      7.27484352e-004 2.32794997e-003 3.34642804e-003 1.60046562e-003
      1.45496873e-004 5.81987493e-004 9.45729669e-003 1.89145934e-003
      6.64920732e-002 1.23963334e-001 6.98385015e-003 6.40186248e-003
      1.01847807e-003 2.76444061e-003 1.89145934e-003 1.45496873e-004
      1.30947190e-003 9.60279349e-003 7.27484352e-004 4.36490634e-004
      2.90993747e-004 1.45496873e-004 2.47344677e-003 4.36490634e-004
      1.28037250e-002 6.12541847e-002 8.29332136e-003 5.96537162e-003
      1.45496873e-004 1.30947190e-003 2.90993747e-004 8.72981269e-004
      1.45496873e-004 1.01847807e-003 3.49192508e-003 1.30947190e-003
      2.90993747e-004 7.27484352e-004 1.42586939e-002 1.60046562e-003
      7.39124119e-002 1.28764734e-001 8.29332136e-003 1.35312090e-002
      2.90993747e-004 3.34642804e-003 1.16397499e-003 1.45496873e-004
      1.74596254e-003 6.69285608e-003 7.27484352e-004 5.81987493e-004
      4.36490634e-004 5.81987493e-004 1.60046562e-003 1.45496870e-003
      1.68776382e-002 4.87414524e-002 1.81871094e-002 1.36767058e-002
      8.72981269e-004 1.60046562e-003 7.27484352e-004 1.45496873e-004
      1.16397499e-003 1.89145934e-003 5.23788761e-003 2.03695614e-003
      4.36490634e-004 8.72981269e-004 1.26582282e-002 1.74596254e-003
      1.02575295e-001 9.19540226e-002 9.02080629e-003 1.67321395e-002
      8.72981269e-004 4.07391228e-003 1.74596254e-003 2.90993747e-004
      1.01847807e-003 6.98385015e-003 2.90993747e-004 1.01847807e-003 0.
      1.45496873e-004 2.90993741e-003 7.27484352e-004 1.42586939e-002
      4.49585356e-002 2.18245313e-002 1.81871094e-002 8.72981269e-004
      2.32794997e-003 2.90993747e-004 0. 1.16397499e-003 2.03695614e-003
      6.25636568e-003 3.92841548e-003 5.81987493e-004 7.27484352e-004
      1.62956491e-002 3.20093124e-003 1.06067218e-001 1.12323590e-001</_>
    <_>
      1.19307432e-002 5.67437802e-003 1.16397499e-003 3.92841548e-003
      5.38338441e-003 8.72981269e-004 3.63742188e-003 1.10577624e-002
      1.16397499e-003 1.16397499e-003 4.36490634e-004 2.90993747e-004
      4.51040315e-003 1.74596254e-003 1.19307432e-002 2.34249961e-002
      5.23788761e-003 7.27484352e-004 5.81987493e-004 1.16397499e-003
      4.36490634e-004 0. 1.74596254e-003 1.45496870e-003 3.63742188e-003
      1.45496870e-003 5.81987493e-004 4.36490634e-004 2.45889723e-002
      1.01847807e-003 4.65589985e-002 3.59377265e-002 6.83835289e-003
      9.89378709e-003 8.72981269e-004 2.47344677e-003 2.18245317e-003
      4.36490634e-004 1.45496870e-003 3.92841548e-003 4.36490634e-004
      2.90993747e-004 0. 1.45496873e-004 1.01847807e-003 5.81987493e-004
      2.32794997e-003 9.74829029e-003 6.40186248e-003 6.11086888e-003
      4.36490634e-004 8.72981269e-004 2.90993747e-004 0. 1.01847807e-003
      1.60046562e-003 8.72981269e-004 2.90993747e-004 1.45496873e-004
      1.45496873e-004 2.32794997e-003 2.90993747e-004 1.19307432e-002
      1.77506190e-002 9.02080629e-003 3.05543444e-003 1.45496873e-004
      1.30947190e-003 4.51040315e-003 2.90993747e-004 8.72981269e-004
      5.67437802e-003 2.32794997e-003 1.45496873e-004 2.90993747e-004 0.
      3.34642804e-003 5.81987493e-004 3.92841548e-003 1.86235998e-002
      6.83835289e-003 1.30947190e-003 1.45496873e-004 4.36490634e-004
      2.90993747e-004 0. 0. 1.45496873e-004 3.20093124e-003
      1.30947190e-003 2.90993747e-004 2.90993747e-004 1.46951843e-002
      1.16397499e-003 1.38222026e-002 1.32402154e-002 1.99330710e-002
      1.06212720e-002 1.74596254e-003 4.94689355e-003 4.65589995e-003
      1.30947190e-003 5.67437802e-003 2.18245313e-002 1.16397499e-003
      8.72981269e-004 4.36490634e-004 7.27484352e-004 4.36490634e-003
      1.16397499e-003 1.00392839e-002 3.57922316e-002 1.14942528e-002
      6.25636568e-003 1.16397499e-003 1.60046562e-003 1.60046562e-003
      1.45496873e-004 1.74596254e-003 1.60046562e-003 5.09239035e-003
      1.89145934e-003 4.36490634e-004 1.01847807e-003 1.17852464e-002
      2.47344677e-003 3.47737521e-002 5.13603948e-002 9.60279349e-003
      6.40186248e-003 1.74596254e-003 5.81987482e-003 4.51040315e-003
      1.01847807e-003 7.42034055e-003 2.82263942e-002 1.60046562e-003
      1.45496873e-004 0. 2.90993747e-004 4.80139675e-003 1.16397499e-003
      9.16630309e-003 3.76836918e-002 5.38338441e-003 2.32794997e-003
      1.45496873e-004 1.16397499e-003 4.36490634e-004 1.45496873e-004
      8.72981269e-004 1.45496870e-003 2.61894381e-003 8.72981269e-004
      2.90993747e-004 1.01847807e-003 1.07667688e-002 1.74596254e-003
      1.92055870e-002 3.47737521e-002 4.80139675e-003 3.49192508e-003
      1.30947190e-003 4.80139675e-003 2.61894381e-003 5.81987493e-004
      2.61894381e-003 1.89145934e-002 1.45496873e-004 2.90993747e-004
      1.45496873e-004 2.90993747e-004 4.36490634e-004 1.45496873e-004
      4.21940954e-003 3.11363302e-002 1.60046562e-003 3.05543444e-003
      2.90993747e-004 1.45496870e-003 1.45496873e-004 2.90993747e-004
      7.27484352e-004 2.32794997e-003 7.27484352e-004 2.90993747e-004
      1.45496873e-004 1.45496873e-004 4.94689355e-003 4.36490634e-004
      9.74829029e-003 5.26698679e-002 6.25636568e-003 3.92841548e-003
      7.27484352e-004 2.47344677e-003 5.09239035e-003 1.45496873e-004
      2.61894381e-003 1.14942528e-002 8.72981269e-004 4.36490634e-004
      1.45496873e-004 1.45496873e-004 4.65589995e-003 5.81987493e-004
      7.27484375e-003 2.16790345e-002 4.36490634e-003 7.27484352e-004
      5.81987493e-004 1.45496873e-004 5.81987493e-004 0. 0.
      8.72981269e-004 3.78291868e-003 1.45496873e-004 0. 1.45496873e-004
      2.92448718e-002 1.30947190e-003 3.04088462e-002 2.42979787e-002
      1.60046555e-002 8.14782456e-003 1.89145934e-003 3.92841548e-003
      6.25636568e-003 1.01847807e-003 6.98385015e-003 1.35312090e-002
      1.74596254e-003 7.27484352e-004 4.36490634e-004 1.01847807e-003
      4.65589995e-003 1.30947190e-003 9.60279349e-003 2.56074499e-002
      8.72981269e-003 3.92841548e-003 8.72981269e-004 7.27484352e-004
      5.81987493e-004 2.90993747e-004 1.01847807e-003 1.01847807e-003
      5.96537162e-003 1.30947190e-003 8.72981269e-004 2.90993747e-004
      1.38222026e-002 1.60046562e-003 2.34249961e-002 2.38614865e-002
      9.74829029e-003 4.80139675e-003 7.27484352e-004 2.47344677e-003
      3.20093124e-003 7.27484352e-004 2.47344677e-003 9.16630309e-003
      1.16397499e-003 7.27484352e-004 0. 1.45496873e-004 2.90993741e-003
      1.16397499e-003 3.92841548e-003 2.92448718e-002 7.56583735e-003
      2.47344677e-003 5.81987493e-004 1.01847807e-003 2.90993747e-004 0.
      7.27484352e-004 1.30947190e-003 5.09239035e-003 8.72981269e-004
      1.45496873e-004 0. 1.04757752e-002 7.27484352e-004 1.96420774e-002
      2.58984435e-002 1.20762400e-002 1.00392839e-002 1.01847807e-003
      3.92841548e-003 3.05543444e-003 1.45496873e-004 2.61894381e-003
      1.06212720e-002 8.72981269e-004 1.30947190e-003 2.90993747e-004
      4.36490634e-004 3.63742188e-003 1.01847807e-003 1.19307432e-002
      5.19423820e-002 1.51316747e-002 5.67437802e-003 4.36490634e-004
      1.45496870e-003 2.90993747e-004 1.45496873e-004 2.03695614e-003
      1.74596254e-003 6.69285608e-003 2.18245317e-003 4.36490634e-004
      4.36490634e-004 1.12032592e-002 3.49192508e-003 4.74319793e-002
      4.01571356e-002 1.00392839e-002 6.54735928e-003 1.45496870e-003
      3.20093124e-003 1.60046562e-003 5.81987493e-004 2.32794997e-003
      8.58431589e-003 1.45496870e-003 2.90993747e-004 4.36490634e-004
      1.45496873e-004 3.34642804e-003 8.72981269e-004 7.12934695e-003
      2.79354006e-002 7.85683095e-003 2.76444061e-003 7.27484352e-004
      1.30947190e-003 4.36490634e-004 2.90993747e-004 1.01847807e-003
      2.47344677e-003 5.23788761e-003 1.16397499e-003 5.81987493e-004
      4.36490634e-004 1.76051222e-002 1.74596254e-003 5.41248359e-002
      5.61617948e-002 1.01847807e-002 1.14942528e-002 5.81987493e-004
      3.49192508e-003 3.20093124e-003 1.45496873e-004 1.16397499e-003
      6.11086888e-003 1.16397499e-003 5.81987493e-004 2.90993747e-004
      1.45496873e-004 1.89145934e-003 7.27484352e-004 5.38338441e-003
      2.03695614e-002 1.04757752e-002 5.67437802e-003 4.36490634e-004
      1.74596254e-003 4.36490634e-004 1.45496873e-004 1.16397499e-003
      1.16397499e-003 5.81987482e-003 1.01847807e-003 2.90993747e-004
      1.45496873e-004 1.25127314e-002 1.45496870e-003 3.02633494e-002
      3.79746854e-002 9.02080629e-003 1.42586939e-002 1.45496870e-003
      4.36490634e-003 2.76444061e-003 2.90993747e-004 2.90993741e-003
      1.23672346e-002 4.36490634e-004 1.16397499e-003 0. 2.90993747e-004
      3.05543444e-003 1.01847807e-003 1.28037250e-002 4.67044972e-002
      1.14942528e-002 1.52771715e-002 1.01847807e-003 1.60046562e-003
      1.45496873e-004 1.45496873e-004 1.60046562e-003 3.05543444e-003
      2.47344677e-003 2.18245317e-003 1.45496873e-004 8.72981269e-004
      9.31179989e-003 1.30947190e-003 5.87807372e-002 1.44478396e-001
      1.12032592e-002 1.00392839e-002 5.81987493e-004 2.90993741e-003
      3.34642804e-003 2.90993747e-004 1.60046562e-003 5.67437802e-003
      1.01847807e-003 8.72981269e-004 1.45496873e-004 4.36490634e-004
      2.61894381e-003 2.90993747e-004 1.09122656e-002 3.57922316e-002
      1.19307432e-002 1.42586939e-002 1.16397499e-003 1.89145934e-003
      5.81987493e-004 4.36490634e-004 8.72981269e-004 1.74596254e-003
      4.65589995e-003 1.89145934e-003 5.81987493e-004 5.81987493e-004
      1.04757752e-002 2.18245317e-003 6.69285581e-002 1.27018765e-001
      1.22217378e-002 1.46951843e-002 1.45496870e-003 1.89145934e-003
      2.32794997e-003 2.90993747e-004 3.49192508e-003 5.67437802e-003
      1.60046562e-003 1.30947190e-003 1.45496873e-004 4.36490634e-004
      3.78291868e-003 1.60046562e-003 2.02240646e-002 4.23395894e-002
      1.80416126e-002 1.25127314e-002 2.32794997e-003 1.16397499e-003
      5.81987493e-004 2.90993747e-004 1.45496870e-003 1.16397499e-003
      7.12934695e-003 2.32794997e-003 1.01847807e-003 4.36490634e-004
      1.92055870e-002 2.76444061e-003 9.31179971e-002 9.54459459e-002
      1.44041907e-002 1.84781030e-002 7.27484352e-004 2.61894381e-003
      1.45496870e-003 1.45496873e-004 2.03695614e-003 7.27484375e-003
      2.03695614e-003 8.72981269e-004 0. 4.36490634e-004 2.61894381e-003
      1.89145934e-003 1.81871094e-002 4.20485958e-002 2.32794993e-002
      2.18245313e-002 3.20093124e-003 1.74596254e-003 8.72981269e-004
      1.45496873e-004 1.74596254e-003 1.74596254e-003 6.83835289e-003
      2.61894381e-003 2.90993747e-004 5.81987493e-004 1.55681651e-002
      2.03695614e-003 9.35544893e-002 1.02429800e-001</_>
    <_>
      4.51040315e-003 5.23788761e-003 0. 2.32794997e-003 2.03695614e-003
      1.45496873e-004 7.27484352e-004 2.18245317e-003 1.01847807e-003 0.
      0. 0. 3.92841548e-003 4.36490634e-004 6.83835289e-003
      4.65589995e-003 6.25636568e-003 9.60279349e-003 0. 1.30947190e-003
      2.90993747e-004 1.45496873e-004 0. 1.30947190e-003 3.49192508e-003
      1.60046562e-003 1.45496873e-004 2.90993747e-004 1.96420774e-002
      8.72981269e-004 2.85173878e-002 1.86235998e-002 9.89378709e-003
      6.54735928e-003 1.01847807e-003 2.90993741e-003 5.67437802e-003
      4.36490634e-004 3.49192508e-003 6.98385015e-003 1.89145934e-003
      8.72981269e-004 1.45496873e-004 0. 5.23788761e-003 1.45496873e-004
      1.55681651e-002 3.02633494e-002 9.89378709e-003 5.09239035e-003
      4.36490634e-004 1.01847807e-003 7.27484352e-004 0. 4.36490634e-004
      1.45496870e-003 5.67437802e-003 7.27484352e-004 2.90993747e-004
      5.81987493e-004 2.60439403e-002 2.47344677e-003 6.99839965e-002
      5.65982834e-002 8.58431589e-003 5.81987482e-003 1.01847807e-003
      3.78291868e-003 2.47344677e-003 4.36490634e-004 2.03695614e-003
      1.51316747e-002 1.16397499e-003 0. 0. 5.81987493e-004
      3.78291868e-003 1.60046562e-003 1.30947186e-002 8.24967250e-002
      7.42034055e-003 3.34642804e-003 5.81987493e-004 1.30947190e-003
      2.90993747e-004 1.45496873e-004 2.90993747e-004 1.30947190e-003
      4.21940954e-003 1.89145934e-003 4.36490634e-004 8.72981269e-004
      7.85683095e-003 1.60046562e-003 4.29215766e-002 6.46006092e-002
      1.80416126e-002 6.25636568e-003 1.30947190e-003 6.83835289e-003
      6.83835289e-003 8.72981269e-004 3.78291868e-003 2.61894371e-002
      2.03695614e-003 5.81987493e-004 4.36490634e-004 2.90993747e-004
      2.90993741e-003 7.27484352e-004 1.06212720e-002 4.75774780e-002
      6.69285608e-003 3.34642804e-003 1.45496873e-004 7.27484352e-004
      4.36490634e-004 1.45496873e-004 2.90993747e-004 2.61894381e-003
      4.36490634e-003 5.81987493e-004 1.45496873e-004 7.27484352e-004
      1.29492218e-002 8.72981269e-004 2.85173878e-002 5.10694012e-002
      5.38338441e-003 3.20093124e-003 5.81987493e-004 2.03695614e-003
      4.36490634e-003 5.81987493e-004 2.18245317e-003 9.74829029e-003
      1.30947190e-003 2.90993747e-004 0. 0. 5.52888121e-003
      1.01847807e-003 6.40186248e-003 2.09515505e-002 4.07391228e-003
      2.03695614e-003 4.36490634e-004 2.90993747e-004 7.27484352e-004 0.
      1.45496873e-004 4.36490634e-004 5.52888121e-003 5.81987493e-004
      7.27484352e-004 5.81987493e-004 2.41524801e-002 1.45496870e-003
      2.96813622e-002 2.21155249e-002 6.54735928e-003 5.23788761e-003
      5.81987493e-004 2.90993741e-003 6.40186248e-003 8.72981269e-004
      2.47344677e-003 1.39677003e-002 1.45496873e-004 1.45496873e-004 0.
      4.36490634e-004 3.20093124e-003 5.81987493e-004 5.38338441e-003
      3.79746854e-002 2.47344677e-003 3.20093124e-003 1.45496873e-004
      8.72981269e-004 0. 0. 5.81987493e-004 7.27484352e-004
      3.05543444e-003 8.72981269e-004 1.45496873e-004 5.81987493e-004
      9.74829029e-003 1.60046562e-003 2.32794993e-002 6.24181591e-002
      5.67437802e-003 4.65589995e-003 4.36490634e-004 2.03695614e-003
      4.36490634e-003 1.01847807e-003 1.89145934e-003 1.99330710e-002 0.
      4.36490634e-004 0. 1.45496873e-004 1.16397499e-003 1.30947190e-003
      2.90993741e-003 2.60439403e-002 3.78291868e-003 3.34642804e-003
      1.45496873e-004 8.72981269e-004 1.45496873e-004 0. 4.36490634e-004
      1.16397499e-003 3.20093124e-003 7.27484352e-004 0. 2.90993747e-004
      3.63742188e-003 1.01847807e-003 5.52888121e-003 3.02633494e-002
      6.83835289e-003 1.89145934e-003 1.01847807e-003 3.05543444e-003
      4.07391228e-003 0. 1.60046562e-003 1.16397496e-002 4.36490634e-004
      0. 0. 0. 3.20093124e-003 0. 4.21940954e-003 1.86235998e-002
      3.92841548e-003 8.72981269e-004 2.90993747e-004 4.36490634e-004
      5.81987493e-004 0. 7.27484352e-004 1.60046562e-003 4.07391228e-003
      4.36490634e-004 1.45496873e-004 2.90993747e-004 1.64411459e-002
      8.72981269e-004 1.49861779e-002 2.60439403e-002 1.09122656e-002
      4.65589995e-003 7.27484352e-004 2.76444061e-003 1.89145934e-003
      5.81987493e-004 3.05543444e-003 1.16397496e-002 1.30947190e-003
      1.45496873e-004 0. 1.45496873e-004 2.47344677e-003 4.36490634e-004
      5.81987482e-003 1.93510838e-002 4.51040315e-003 1.45496870e-003
      4.36490634e-004 4.36490634e-004 7.27484352e-004 0. 2.90993747e-004
      1.01847807e-003 4.07391228e-003 7.27484352e-004 2.90993747e-004
      2.90993747e-004 1.28037250e-002 0. 1.51316747e-002 2.05150601e-002
      1.01847807e-002 6.25636568e-003 2.47344677e-003 6.25636568e-003
      3.92841548e-003 5.81987493e-004 4.36490634e-003 1.61501523e-002
      2.90993747e-004 7.27484352e-004 7.27484352e-004 2.90993747e-004
      2.32794997e-003 5.81987493e-004 4.94689355e-003 4.07391228e-002
      4.65589995e-003 2.61894381e-003 8.72981269e-004 1.45496870e-003
      5.81987493e-004 4.36490634e-004 1.01847807e-003 2.76444061e-003
      2.47344677e-003 1.16397499e-003 2.90993747e-004 5.81987493e-004
      6.83835289e-003 2.03695614e-003 1.25127314e-002 3.41917649e-002
      8.58431589e-003 3.49192508e-003 5.81987493e-004 1.45496870e-003
      3.49192508e-003 5.81987493e-004 2.61894381e-003 5.67437802e-003
      1.30947190e-003 0. 4.36490634e-004 1.45496873e-004 6.98385015e-003
      4.36490634e-004 1.52771715e-002 2.44434755e-002 3.78291868e-003
      6.54735928e-003 4.36490634e-004 2.90993747e-004 4.36490634e-004 0.
      7.27484352e-004 1.01847807e-003 5.52888121e-003 4.36490634e-004
      7.27484352e-004 2.90993747e-004 2.85173878e-002 1.01847807e-003
      7.62403607e-002 5.68892770e-002 4.94689355e-003 1.30947190e-003
      7.27484352e-004 1.30947190e-003 2.18245317e-003 1.45496873e-004
      8.72981269e-004 4.94689355e-003 1.16397499e-003 4.36490634e-004 0.
      1.45496873e-004 3.49192508e-003 2.90993747e-004 3.78291868e-003
      9.31179989e-003 3.63742188e-003 1.45496870e-003 4.36490634e-004
      1.45496873e-004 2.90993747e-004 0. 2.90993747e-004 5.81987493e-004
      4.51040315e-003 8.72981269e-004 0. 1.45496873e-004 1.32402154e-002
      1.45496870e-003 1.86235998e-002 3.41917649e-002 5.81987482e-003
      1.16397496e-002 4.36490634e-004 1.74596254e-003 1.89145934e-003
      5.81987493e-004 2.32794997e-003 6.11086888e-003 4.36490634e-004
      8.72981269e-004 2.90993747e-004 4.36490634e-004 1.45496870e-003
      1.01847807e-003 1.42586939e-002 9.07900482e-002 7.85683095e-003
      1.68776382e-002 8.72981269e-004 1.60046562e-003 2.90993747e-004
      1.45496873e-004 2.90993747e-004 2.47344677e-003 2.76444061e-003
      2.03695614e-003 2.90993747e-004 4.36490634e-004 5.81987482e-003
      1.60046562e-003 6.19816668e-002 1.71540812e-001 1.23672346e-002
      7.42034055e-003 1.89145934e-003 2.03695614e-003 3.78291868e-003
      1.01847807e-003 4.94689355e-003 1.71686318e-002 1.89145934e-003
      1.16397499e-003 5.81987493e-004 1.16397499e-003 1.74596254e-003
      1.60046562e-003 1.44041907e-002 8.83166045e-002 5.81987482e-003
      2.76444061e-003 7.27484352e-004 2.90993747e-004 5.81987493e-004 0.
      7.27484352e-004 1.01847807e-003 3.34642804e-003 2.90993747e-004
      1.45496873e-004 5.81987493e-004 5.38338441e-003 1.16397499e-003
      4.62680049e-002 1.29783213e-001 6.83835289e-003 5.09239035e-003
      7.27484352e-004 2.32794997e-003 2.18245317e-003 5.81987493e-004
      1.30947190e-003 5.38338441e-003 7.27484352e-004 7.27484352e-004
      2.90993747e-004 2.90993747e-004 1.60046562e-003 2.90993747e-004
      1.13487560e-002 2.83718910e-002 6.25636568e-003 4.36490634e-003
      1.16397499e-003 8.72981269e-004 2.90993747e-004 2.90993747e-004
      1.16397499e-003 1.74596254e-003 2.61894381e-003 1.60046562e-003
      2.90993747e-004 1.01847807e-003 8.29332136e-003 1.74596254e-003
      7.10024759e-002 1.35748580e-001 3.34642804e-003 4.21940954e-003
      2.90993747e-004 7.27484352e-004 1.01847807e-003 2.90993747e-004
      7.27484352e-004 3.78291868e-003 1.45496873e-004 2.90993747e-004 0.
      0. 2.18245317e-003 2.90993747e-004 7.42034055e-003 3.20093110e-002
      3.78291868e-003 7.56583735e-003 5.81987493e-004 1.30947190e-003
      1.45496873e-004 0. 2.90993747e-004 1.60046562e-003 3.92841548e-003
      5.81987493e-004 4.36490634e-004 2.90993747e-004 1.16397496e-002
      1.89145934e-003 7.65313581e-002 1.31820172e-001</_>
    <_>
      1.32402154e-002 1.44041907e-002 1.45496873e-004 3.78291868e-003
      1.60046562e-003 1.45496873e-004 1.45496870e-003 7.85683095e-003
      8.72981269e-004 4.36490634e-004 0. 2.90993747e-004 1.89145934e-003
      5.81987493e-004 6.54735928e-003 1.87690966e-002 1.30947186e-002
      1.17852464e-002 5.81987493e-004 2.03695614e-003 2.90993747e-004
      2.90993747e-004 7.27484352e-004 2.03695614e-003 3.34642804e-003
      1.60046562e-003 0. 5.81987493e-004 4.80139675e-003 1.89145934e-003
      3.02633494e-002 9.61734354e-002 7.71133415e-003 1.00392839e-002
      2.90993747e-004 4.80139675e-003 1.74596254e-003 1.45496873e-004
      1.89145934e-003 9.16630309e-003 1.16397499e-003 4.36490634e-004 0.
      0. 1.74596254e-003 1.45496873e-004 5.09239035e-003 2.70624179e-002
      1.19307432e-002 1.12032592e-002 4.36490634e-004 1.45496870e-003
      2.90993747e-004 0. 1.01847807e-003 1.60046562e-003 3.92841548e-003
      1.30947190e-003 4.36490634e-004 1.45496873e-004 1.16397496e-002
      2.18245317e-003 6.83835298e-002 7.10024759e-002 9.74829029e-003
      1.36767058e-002 7.27484352e-004 3.20093124e-003 1.16397499e-003
      1.45496873e-004 2.47344677e-003 1.17852464e-002 1.74596254e-003
      2.90993747e-004 0. 2.90993747e-004 1.89145934e-003 8.72981269e-004
      1.29492218e-002 6.88200220e-002 1.26582282e-002 4.94689355e-003
      7.27484352e-004 1.16397499e-003 1.45496873e-004 0. 1.45496870e-003
      1.74596254e-003 6.40186248e-003 2.61894381e-003 4.36490634e-004
      5.81987493e-004 1.17852464e-002 2.90993741e-003 5.60162961e-002
      6.41641244e-002 1.25127314e-002 1.06212720e-002 1.60046562e-003
      3.92841548e-003 4.36490634e-003 7.27484352e-004 2.32794997e-003
      1.51316747e-002 1.45496870e-003 5.81987493e-004 4.36490634e-004
      2.90993747e-004 4.36490634e-003 1.30947190e-003 1.12032592e-002
      4.13211137e-002 1.25127314e-002 5.96537162e-003 1.01847807e-003
      7.27484352e-004 5.81987493e-004 0. 8.72981269e-004 1.45496870e-003
      4.94689355e-003 1.30947190e-003 5.81987493e-004 5.81987493e-004
      1.73141286e-002 1.45496870e-003 6.91110119e-002 5.71802706e-002
      2.76444061e-003 2.90993741e-003 0. 1.30947190e-003 1.60046562e-003
      1.45496873e-004 7.27484352e-004 5.96537162e-003 2.90993747e-004 0.
      1.45496873e-004 0. 8.72981269e-004 0. 1.60046562e-003
      6.83835289e-003 2.32794997e-003 2.90993741e-003 1.45496873e-004
      5.81987493e-004 0. 0. 1.45496873e-004 1.01847807e-003
      2.76444061e-003 1.45496873e-004 0. 2.90993747e-004 7.71133415e-003
      8.72981269e-004 6.98385015e-003 1.99330710e-002 6.54735928e-003
      4.21940954e-003 1.01847807e-003 6.11086888e-003 1.89145934e-003
      2.90993747e-004 3.05543444e-003 1.70231350e-002 4.36490634e-004
      1.45496873e-004 0. 0. 1.89145934e-003 4.36490634e-004
      6.83835289e-003 3.98661420e-002 4.36490634e-003 2.32794997e-003
      2.90993747e-004 1.01847807e-003 2.90993747e-004 0. 2.90993747e-004
      2.03695614e-003 1.74596254e-003 5.81987493e-004 0. 4.36490634e-004
      1.25127314e-002 7.27484352e-004 3.08453366e-002 6.56190887e-002
      5.96537162e-003 2.18245317e-003 1.45496873e-004 2.47344677e-003
      3.34642804e-003 1.45496873e-004 2.47344677e-003 2.18245313e-002
      5.81987493e-004 4.36490634e-004 0. 0. 3.63742188e-003
      2.90993747e-004 5.81987482e-003 2.98268590e-002 3.63742188e-003
      4.36490634e-004 0. 4.36490634e-004 0. 0. 4.36490634e-004
      4.36490634e-004 2.90993741e-003 4.36490634e-004 0. 1.45496873e-004
      1.30947186e-002 4.36490634e-004 1.13487560e-002 1.92055870e-002
      8.58431589e-003 6.54735928e-003 1.01847807e-003 5.38338441e-003
      2.47344677e-003 2.90993747e-004 3.05543444e-003 1.89145934e-002
      1.74596254e-003 7.27484352e-004 2.90993747e-004 5.81987493e-004
      3.20093124e-003 1.16397499e-003 1.25127314e-002 6.18361719e-002
      9.31179989e-003 4.07391228e-003 4.36490634e-004 2.90993747e-004
      8.72981269e-004 0. 7.27484352e-004 1.30947190e-003 7.12934695e-003
      1.45496870e-003 2.90993747e-004 5.81987493e-004 1.70231350e-002
      2.90993747e-004 4.46675383e-002 4.48130369e-002 3.78291868e-003
      6.40186248e-003 2.90993747e-004 3.92841548e-003 1.30947190e-003
      1.45496873e-004 3.05543444e-003 1.13487560e-002 4.36490634e-004
      2.90993747e-004 0. 2.90993747e-004 7.27484352e-004 1.45496873e-004
      5.23788761e-003 3.18638161e-002 4.21940954e-003 2.47344677e-003
      4.36490634e-004 7.27484352e-004 1.45496873e-004 0. 5.81987493e-004
      1.16397499e-003 1.74596254e-003 4.36490634e-004 2.90993747e-004
      4.36490634e-004 6.98385015e-003 1.01847807e-003 1.73141286e-002
      6.47461116e-002 3.92841548e-003 4.51040315e-003 4.36490634e-004
      2.18245317e-003 2.03695614e-003 2.90993747e-004 2.18245317e-003
      1.92055870e-002 2.90993747e-004 0. 1.45496873e-004 1.45496873e-004
      1.45496870e-003 1.45496873e-004 3.92841548e-003 3.72471996e-002
      5.81987482e-003 3.63742188e-003 4.36490634e-004 7.27484352e-004 0.
      0. 2.90993747e-004 1.16397499e-003 1.89145934e-003 8.72981269e-004
      0. 5.81987493e-004 8.43881909e-003 1.30947190e-003 1.60046555e-002
      5.92172258e-002 5.96537162e-003 5.52888121e-003 4.36490634e-004
      3.63742188e-003 1.74596254e-003 1.45496873e-004 2.32794997e-003
      6.25636568e-003 1.01847807e-003 5.81987493e-004 1.45496873e-004 0.
      2.32794997e-003 2.90993747e-004 8.29332136e-003 1.44041907e-002
      5.67437802e-003 3.92841548e-003 2.90993747e-004 1.16397499e-003
      8.72981269e-004 0. 2.90993747e-004 1.30947190e-003 5.09239035e-003
      1.16397499e-003 2.90993747e-004 1.45496873e-004 1.80416126e-002
      1.45496870e-003 5.54343089e-002 5.25243729e-002 3.92841548e-003
      6.11086888e-003 7.27484352e-004 3.05543444e-003 1.89145934e-003
      7.27484352e-004 8.72981269e-004 1.19307432e-002 4.36490634e-004
      7.27484352e-004 0. 0. 1.01847807e-003 7.27484352e-004
      3.63742188e-003 2.64804307e-002 5.52888121e-003 4.80139675e-003
      1.45496873e-004 5.81987493e-004 1.45496873e-004 1.45496873e-004
      5.81987493e-004 7.27484352e-004 3.49192508e-003 1.30947190e-003
      1.45496873e-004 1.45496873e-004 1.36767058e-002 1.60046562e-003
      3.43372636e-002 6.21271655e-002 1.13487560e-002 9.74829029e-003
      1.16397499e-003 3.78291868e-003 2.47344677e-003 4.36490634e-004
      2.47344677e-003 9.74829029e-003 1.45496870e-003 8.72981269e-004
      2.90993747e-004 2.90993747e-004 2.90993741e-003 1.01847807e-003
      7.12934695e-003 2.76444051e-002 1.06212720e-002 8.00232776e-003
      1.74596254e-003 1.45496870e-003 2.90993747e-004 2.90993747e-004
      1.16397499e-003 2.47344677e-003 4.51040315e-003 1.74596254e-003
      2.90993747e-004 1.01847807e-003 1.17852464e-002 3.78291868e-003
      7.17299581e-002 1.42877936e-001 5.67437802e-003 8.43881909e-003
      1.45496873e-004 1.60046562e-003 1.01847807e-003 2.90993747e-004
      1.60046562e-003 6.25636568e-003 2.90993747e-004 4.36490634e-004 0.
      0. 2.32794997e-003 1.30947190e-003 7.71133415e-003 3.95751484e-002
      1.09122656e-002 8.14782456e-003 7.27484352e-004 1.30947190e-003 0.
      0. 7.27484352e-004 1.45496870e-003 2.76444061e-003 1.89145934e-003
      1.45496873e-004 2.90993747e-004 1.19307432e-002 2.18245317e-003
      1.07522190e-001 1.78670153e-001 9.16630309e-003 1.00392839e-002
      1.16397499e-003 3.78291868e-003 3.92841548e-003 1.45496873e-004
      1.89145934e-003 6.69285608e-003 1.16397499e-003 7.27484352e-004
      2.90993747e-004 1.45496873e-004 5.09239035e-003 5.81987493e-004
      1.51316747e-002 2.98268590e-002 9.16630309e-003 1.00392839e-002
      1.60046562e-003 1.74596254e-003 7.27484352e-004 5.81987493e-004
      1.30947190e-003 1.89145934e-003 5.52888121e-003 1.89145934e-003
      2.90993747e-004 4.36490634e-004 1.83326062e-002 2.90993741e-003
      9.00625661e-002 7.27484375e-002 1.04757752e-002 1.26582282e-002
      5.81987493e-004 3.05543444e-003 5.81987493e-004 1.45496873e-004
      1.16397499e-003 6.11086888e-003 1.01847807e-003 2.90993747e-004
      1.45496873e-004 1.45496873e-004 1.74596254e-003 7.27484352e-004
      1.01847807e-002 2.40069833e-002 1.77506190e-002 2.05150601e-002
      5.81987493e-004 2.18245317e-003 5.81987493e-004 1.45496873e-004
      1.89145934e-003 1.16397499e-003 3.63742188e-003 2.47344677e-003
      5.81987493e-004 8.72981269e-004 8.43881909e-003 2.18245317e-003
      1.15961008e-001 8.19147378e-002</_>
    <_>
      8.29332136e-003 1.36767058e-002 4.36490634e-004 4.36490634e-003
      1.45496870e-003 1.45496873e-004 1.45496870e-003 9.74829029e-003
      2.90993747e-004 2.90993747e-004 0. 1.45496873e-004 1.60046562e-003
      2.90993747e-004 7.42034055e-003 2.45889723e-002 1.13487560e-002
      9.74829029e-003 7.27484352e-004 1.30947190e-003 5.81987493e-004
      1.45496873e-004 5.81987493e-004 1.16397499e-003 3.34642804e-003
      5.81987493e-004 1.45496873e-004 1.45496873e-004 7.71133415e-003
      1.30947190e-003 3.01178526e-002 7.02749863e-002 6.54735928e-003
      7.56583735e-003 8.72981269e-004 2.32794997e-003 2.47344677e-003
      4.36490634e-004 1.30947190e-003 9.74829029e-003 4.36490634e-004
      8.72981269e-004 0. 0. 1.16397499e-003 4.36490634e-004
      4.36490634e-003 1.94965806e-002 9.89378709e-003 1.33857122e-002
      1.45496873e-004 1.16397499e-003 2.90993747e-004 0. 4.36490634e-004
      8.72981269e-004 3.20093124e-003 8.72981269e-004 1.45496873e-004 0.
      6.98385015e-003 1.60046562e-003 3.04088462e-002 7.53673837e-002
      9.60279349e-003 9.45729669e-003 1.30947190e-003 3.49192508e-003
      1.16397499e-003 7.27484352e-004 3.34642804e-003 1.12032592e-002
      1.16397499e-003 7.27484352e-004 0. 4.36490634e-004 2.32794997e-003
      8.72981269e-004 9.89378709e-003 2.96813622e-002 1.12032592e-002
      3.92841548e-003 8.72981269e-004 1.45496870e-003 4.36490634e-004
      4.36490634e-004 8.72981269e-004 1.60046562e-003 7.12934695e-003
      1.45496870e-003 4.36490634e-004 0. 1.35312090e-002 2.03695614e-003
      5.12148999e-002 6.62010759e-002 1.09122656e-002 1.44041907e-002
      1.74596254e-003 7.12934695e-003 2.90993741e-003 1.01847807e-003
      3.78291868e-003 1.14942528e-002 1.01847807e-003 8.72981269e-004 0.
      2.90993747e-004 3.05543444e-003 1.01847807e-003 1.29492218e-002
      4.45220433e-002 1.61501523e-002 7.12934695e-003 1.01847807e-003
      1.30947190e-003 5.81987493e-004 0. 5.81987493e-004 2.03695614e-003
      6.69285608e-003 8.72981269e-004 1.45496873e-004 5.81987493e-004
      1.45496875e-002 2.32794997e-003 7.60948658e-002 5.96537180e-002
      4.94689355e-003 7.27484375e-003 1.45496873e-004 3.20093124e-003
      2.18245317e-003 5.81987493e-004 1.89145934e-003 9.02080629e-003
      5.81987493e-004 2.90993747e-004 0. 0. 1.45496870e-003
      5.81987493e-004 6.98385015e-003 2.12425441e-002 6.54735928e-003
      4.51040315e-003 0. 8.72981269e-004 4.36490634e-004 1.45496873e-004
      5.81987493e-004 8.72981269e-004 3.92841548e-003 8.72981269e-004 0.
      5.81987493e-004 2.40069833e-002 1.45496870e-003 4.55405228e-002
      2.85173878e-002 9.02080629e-003 9.45729669e-003 1.30947190e-003
      6.54735928e-003 1.30947190e-003 1.45496873e-004 2.32794997e-003
      1.96420774e-002 2.90993747e-004 1.30947190e-003 1.45496873e-004
      4.36490634e-004 2.18245317e-003 1.30947190e-003 9.16630309e-003
      7.20209554e-002 6.98385015e-003 4.94689355e-003 1.01847807e-003
      8.72981269e-004 7.27484352e-004 1.45496873e-004 5.81987493e-004
      1.45496870e-003 2.32794997e-003 1.16397499e-003 0. 1.45496873e-004
      5.96537162e-003 8.72981269e-004 3.81201804e-002 4.07391228e-002
      1.00392839e-002 6.69285608e-003 8.72981269e-004 5.23788761e-003
      3.05543444e-003 1.01847807e-003 3.78291868e-003 2.77899019e-002
      1.30947190e-003 2.90993747e-004 1.45496873e-004 2.90993747e-004
      3.49192508e-003 7.27484352e-004 9.16630309e-003 4.01571356e-002
      7.56583735e-003 2.47344677e-003 2.90993747e-004 8.72981269e-004
      1.16397499e-003 1.45496873e-004 4.36490634e-004 8.72981269e-004
      5.67437802e-003 8.72981269e-004 1.45496873e-004 1.45496873e-004
      1.42586939e-002 1.45496873e-004 2.41524801e-002 2.64804307e-002
      1.44041907e-002 8.14782456e-003 1.01847807e-003 5.96537162e-003
      4.07391228e-003 8.72981269e-004 4.36490634e-003 2.25520153e-002
      2.90993747e-004 7.27484352e-004 0. 1.45496873e-004 3.34642804e-003
      8.72981269e-004 1.13487560e-002 4.74319793e-002 6.54735928e-003
      1.89145934e-003 5.81987493e-004 8.72981269e-004 2.90993747e-004
      2.90993747e-004 8.72981269e-004 1.60046562e-003 5.81987482e-003
      4.36490634e-004 4.36490634e-004 2.90993747e-004 1.42586939e-002
      1.01847807e-003 2.64804307e-002 2.60439403e-002 3.20093124e-003
      2.47344677e-003 5.81987493e-004 4.07391228e-003 1.60046562e-003
      1.45496873e-004 3.20093124e-003 1.87690966e-002 2.90993747e-004
      2.90993747e-004 1.45496873e-004 0. 1.16397499e-003 1.45496873e-004
      5.81987482e-003 3.11363302e-002 2.03695614e-003 2.90993747e-004
      1.45496873e-004 2.90993747e-004 2.90993747e-004 0. 5.81987493e-004
      1.16397499e-003 2.18245317e-003 4.36490634e-004 0. 7.27484352e-004
      9.16630309e-003 4.36490634e-004 2.19700281e-002 2.51709595e-002
      4.65589995e-003 6.98385015e-003 0. 6.40186248e-003 1.89145934e-003
      5.81987493e-004 3.20093124e-003 1.49861779e-002 8.72981269e-004
      2.90993747e-004 1.45496873e-004 5.81987493e-004 8.72981269e-004
      5.81987493e-004 8.72981269e-003 4.94689383e-002 5.09239035e-003
      3.49192508e-003 2.90993747e-004 1.30947190e-003 2.90993747e-004
      2.90993747e-004 5.81987493e-004 2.03695614e-003 3.49192508e-003
      7.27484352e-004 4.36490634e-004 5.81987493e-004 1.86235998e-002
      7.27484352e-004 6.72195554e-002 4.61225100e-002 6.40186248e-003
      4.94689355e-003 1.01847807e-003 2.47344677e-003 3.49192508e-003
      7.27484352e-004 2.03695614e-003 1.35312090e-002 4.36490634e-004
      1.45496873e-004 1.45496873e-004 1.45496873e-004 2.61894381e-003
      4.36490634e-004 9.02080629e-003 3.65197137e-002 4.65589995e-003
      2.18245317e-003 1.45496873e-004 1.45496870e-003 4.36490634e-004 0.
      7.27484352e-004 1.16397499e-003 3.63742188e-003 4.36490634e-004
      1.45496873e-004 4.36490634e-004 2.40069833e-002 1.60046562e-003
      4.84504588e-002 6.03812039e-002 7.56583735e-003 8.58431589e-003
      8.72981269e-004 4.51040315e-003 2.90993741e-003 4.36490634e-004
      4.07391228e-003 1.86235998e-002 4.36490634e-004 1.45496873e-004
      1.45496873e-004 2.90993747e-004 1.74596254e-003 5.81987493e-004
      1.25127314e-002 5.10694012e-002 5.67437802e-003 4.94689355e-003
      5.81987493e-004 1.16397499e-003 4.36490634e-004 0. 4.36490634e-004
      2.32794997e-003 3.78291868e-003 1.16397499e-003 1.45496873e-004
      2.90993747e-004 1.45496875e-002 1.45496870e-003 4.49585356e-002
      6.72195554e-002 3.78291868e-003 1.06212720e-002 7.27484352e-004
      4.80139675e-003 2.03695614e-003 4.36490634e-004 4.07391228e-003
      1.13487560e-002 8.72981269e-004 7.27484352e-004 0. 0.
      2.03695614e-003 5.81987493e-004 1.36767058e-002 5.15058935e-002
      8.43881909e-003 1.06212720e-002 5.81987493e-004 2.47344677e-003
      8.72981269e-004 4.36490634e-004 1.16397499e-003 3.34642804e-003
      3.63742188e-003 2.76444061e-003 1.45496873e-004 1.01847807e-003
      9.31179989e-003 2.90993741e-003 9.28270072e-002 1.76342204e-001
      5.96537162e-003 9.45729669e-003 7.27484352e-004 4.21940954e-003
      1.30947190e-003 2.90993747e-004 1.16397499e-003 9.89378709e-003
      8.72981269e-004 8.72981269e-004 2.90993747e-004 0. 2.32794997e-003
      8.72981269e-004 1.32402154e-002 4.81594652e-002 1.12032592e-002
      9.02080629e-003 0. 2.18245317e-003 2.90993747e-004 1.45496873e-004
      1.74596254e-003 1.89145934e-003 4.65589995e-003 2.03695614e-003
      2.90993747e-004 7.27484352e-004 1.32402154e-002 2.18245317e-003
      8.83166045e-002 1.30947188e-001 6.40186248e-003 1.09122656e-002
      2.90993747e-004 3.05543444e-003 1.30947190e-003 5.81987493e-004
      8.72981269e-004 5.23788761e-003 8.72981269e-004 7.27484352e-004 0.
      7.27484352e-004 2.76444061e-003 1.30947190e-003 1.74596254e-002
      5.38338423e-002 1.89145934e-002 9.74829029e-003 7.27484352e-004
      1.45496870e-003 2.90993747e-004 4.36490634e-004 1.74596254e-003
      1.60046562e-003 7.42034055e-003 3.05543444e-003 4.36490634e-004
      8.72981269e-004 1.35312090e-002 3.63742188e-003 1.16833992e-001
      1.47824824e-001 1.04757752e-002 1.77506190e-002 4.36490634e-004
      2.76444061e-003 5.81987493e-004 2.90993747e-004 1.74596254e-003
      7.42034055e-003 8.72981269e-004 4.36490634e-004 1.45496873e-004 0.
      3.49192508e-003 1.30947190e-003 1.46951843e-002 5.00509255e-002
      1.71686318e-002 2.12425441e-002 4.36490634e-004 2.03695614e-003
      2.90993747e-004 1.45496873e-004 1.45496870e-003 1.89145934e-003
      4.51040315e-003 1.89145934e-003 2.90993747e-004 7.27484352e-004
      1.38222026e-002 2.03695614e-003 9.73374099e-002 1.08249672e-001</_>
    <_>
      1.10577624e-002 1.35312090e-002 5.81987493e-004 2.61894381e-003
      1.16397499e-003 2.90993747e-004 3.05543444e-003 9.74829029e-003
      7.27484352e-004 2.90993747e-004 0. 1.45496873e-004 2.18245317e-003
      5.81987493e-004 5.38338441e-003 2.72079147e-002 1.23672346e-002
      9.31179989e-003 5.81987493e-004 1.60046562e-003 4.36490634e-004
      2.90993747e-004 8.72981269e-004 1.60046562e-003 2.47344677e-003
      1.30947190e-003 0. 2.90993747e-004 1.00392839e-002 1.30947190e-003
      2.64804307e-002 6.54735938e-002 1.00392839e-002 1.14942528e-002
      8.72981269e-004 4.21940954e-003 1.89145934e-003 4.36490634e-004
      2.47344677e-003 1.33857122e-002 8.72981269e-004 4.36490634e-004
      2.90993747e-004 1.45496873e-004 2.76444061e-003 8.72981269e-004
      5.81987482e-003 3.59377265e-002 8.58431589e-003 1.09122656e-002
      5.81987493e-004 2.32794997e-003 4.36490634e-004 0. 7.27484352e-004
      1.89145934e-003 3.49192508e-003 1.74596254e-003 1.45496873e-004
      4.36490634e-004 6.69285608e-003 2.76444061e-003 2.73534115e-002
      7.84228146e-002 1.10577624e-002 6.98385015e-003 1.01847807e-003
      3.78291868e-003 3.63742188e-003 5.81987493e-004 2.90993741e-003
      1.00392839e-002 7.27484352e-004 8.72981269e-004 0. 1.45496873e-004
      2.18245317e-003 1.45496873e-004 7.71133415e-003 2.80808974e-002
      9.89378709e-003 6.40186248e-003 7.27484352e-004 1.45496870e-003
      8.72981269e-004 1.45496873e-004 5.81987493e-004 1.89145934e-003
      4.21940954e-003 2.32794997e-003 4.36490634e-004 2.90993747e-004
      1.42586939e-002 2.47344677e-003 3.95751484e-002 7.05659837e-002
      1.45496875e-002 1.39677003e-002 1.45496870e-003 5.52888121e-003
      3.05543444e-003 1.16397499e-003 3.20093124e-003 1.25127314e-002
      1.01847807e-003 8.72981269e-004 1.45496873e-004 2.90993747e-004
      4.07391228e-003 1.01847807e-003 1.07667688e-002 3.94296534e-002
      1.55681651e-002 9.45729669e-003 1.01847807e-003 1.01847807e-003
      1.30947190e-003 1.45496873e-004 1.01847807e-003 1.74596254e-003
      5.38338441e-003 2.47344677e-003 5.81987493e-004 1.60046562e-003
      1.33857122e-002 2.18245317e-003 6.28546476e-002 5.71802706e-002
      1.16397496e-002 5.52888121e-003 1.60046562e-003 5.23788761e-003
      4.51040315e-003 5.81987493e-004 5.52888121e-003 2.19700281e-002
      7.27484352e-004 5.81987493e-004 0. 7.27484352e-004 2.90993741e-003
      1.16397499e-003 9.45729669e-003 3.18638161e-002 5.23788761e-003
      3.20093124e-003 1.45496873e-004 1.01847807e-003 8.72981269e-004
      1.45496873e-004 8.72981269e-004 1.60046562e-003 3.49192508e-003
      8.72981269e-004 4.36490634e-004 7.27484352e-004 1.07667688e-002
      1.16397499e-003 1.81871094e-002 2.93903686e-002 8.87530949e-003
      6.98385015e-003 8.72981269e-004 5.52888121e-003 4.36490634e-003
      8.72981269e-004 4.36490634e-003 1.74596254e-002 8.72981269e-004
      4.36490634e-004 1.45496873e-004 4.36490634e-004 3.20093124e-003
      7.27484352e-004 5.38338441e-003 2.56074499e-002 7.12934695e-003
      4.21940954e-003 8.72981269e-004 1.16397499e-003 4.36490634e-004
      1.45496873e-004 1.16397499e-003 1.45496870e-003 2.61894381e-003
      1.16397499e-003 0. 2.90993747e-004 5.23788761e-003 7.27484352e-004
      1.19307432e-002 2.21155249e-002 1.32402154e-002 7.42034055e-003
      1.30947190e-003 6.11086888e-003 3.92841548e-003 4.36490634e-004
      3.78291868e-003 1.33857122e-002 1.45496870e-003 7.27484352e-004 0.
      7.27484352e-004 4.36490634e-003 1.16397499e-003 1.03302784e-002
      2.19700281e-002 8.58431589e-003 1.74596254e-003 5.81987493e-004
      8.72981269e-004 8.72981269e-004 1.45496873e-004 2.03695614e-003
      1.30947190e-003 3.63742188e-003 8.72981269e-004 7.27484352e-004
      5.81987493e-004 2.34249961e-002 1.60046562e-003 4.62680049e-002
      2.51709595e-002 1.22217378e-002 8.00232776e-003 1.45496870e-003
      6.98385015e-003 3.49192508e-003 4.36490634e-004 2.90993741e-003
      2.56074499e-002 1.30947190e-003 5.81987493e-004 1.45496873e-004
